\data\
ngram 1=1034
ngram 2=1802
ngram 3=1691

\1-grams:
-3.3059947	<unk>	0
0	<s>	-0.10312845
-0.97515965	</s>	0
-3.013614	nema	-0.026240522
-1.68982	að	-0.051991336
-3.2407608	maður	-0.026240522
-3.2407608	hafi	-0.026240522
-3.2407608	kannski	-0.026240522
-3.2407608	gleymt	-0.026240522
-2.2220347	því	-0.026240522
-1.6142076	í	-0.04346426
-3.2407608	millitíðinni	-0.026240522
-2.5738473	ekki	-0.026240522
-3.013614	liggja	-0.026240522
-2.3109086	fyrir	-0.03540308
-3.2407608	tölur	-0.026240522
-2.1482947	um	-0.026240522
-3.2407608	árleg	-0.026240522
-3.2407608	dauðsföll	-0.026240522
-1.7017823	á	-0.030797653
-3.2407608	heimsvísu	-0.026240522
-2.5738473	þeir	-0.026240522
-2.005155	sem	-0.026240522
-3.2407608	tala	-0.026240522
-3.013614	borgarfjörð	-0.026240522
-3.2407608	eystra	-0.026240522
-1.9375376	eru	-0.026240522
-2.1482947	með	-0.03276543
-3.2407608	huga	-0.026240522
-3.2407608	austan	-0.026240522
-3.2407608	sýklalyf	-0.026240522
-3.013614	gera	-0.026240522
-3.013614	lítið	-0.026240522
-3.2407608	gagn	-0.026240522
-2.807455	mjög	-0.026240522
-3.013614	snemma	-0.074118175
-3.2407608	sjúkdómsferlinum	-0.026240522
-3.2407608	ótta	-0.026240522
-2.6751297	hvað	-0.03938987
-1.6044054	er	-0.051277354
-3.2407608	klukkan	-0.026240522
-3.2407608	klausturstofnun	-0.026240522
-3.2407608	þeim	-0.026240522
-3.2407608	bæ	-0.026240522
-3.2407608	biskupstíð	-0.026240522
-2.6751297	hans	-0.026240522
-2.807455	varð	-0.026240522
-2.6751297	honum	-0.026240522
-3.2407608	áreiðanlega	-0.026240522
-3.2407608	gleðiefni	-0.026240522
-2.36325	en	-0.026240522
-3.2407608	sá	-0.026240522
-3.2407608	galli	-0.026240522
-3.2407608	dæminu	-0.026240522
-2.2220347	það	-0.04041803
-3.2407608	raunverulegt	-0.026240522
-2.807455	þetta	-0.026240522
-3.2407608	tengist	-0.026240522
-3.2407608	ísland	-0.026240522
-3.2407608	talið	-0.026240522
-2.030255	til	-0.13654836
-3.013614	evrópu	-0.026240522
-2.4917753	hann	-0.026240522
-2.1156437	var	-0.03232737
-2.807455	fyrsti	-0.026240522
-3.2407608	varaforsetinn	-0.026240522
-3.2407608	bauð	-0.026240522
-3.013614	sig	-0.026240522
-3.2407608	aldrei	-0.026240522
-2.6751297	fram	-0.026240522
-3.2407608	forseta	-0.026240522
-3.013614	hvaða	-0.026240522
-3.2407608	tilgangi	-0.026240522
-3.2407608	þjónar	-0.026240522
-3.2407608	skjaldarmerkið	-0.026240522
-1.5584612	og	-0.027954565
-3.2407608	stendur	-0.026240522
-3.2407608	hvert	-0.026240522
-3.2407608	fyrirbæri	-0.026240522
-3.2407608	ætla	-0.026240522
-2.4917753	má	-0.026240522
-3.2407608	lyfjabirgðir	-0.026240522
-3.2407608	landinu	-0.026240522
-2.6751297	séu	-0.026240522
-3.2407608	bil	-0.026240522
-2.4917753	eins	-0.30103
-3.2407608	mánaðar	-0.026240522
-3.2407608	fitan	-0.026240522
-2.807455	gefur	-0.026240522
-3.013614	okkur	-0.026240522
-3.013614	orku	-0.026240522
-3.2407608	dreifir	-0.026240522
-3.2407608	næringarefnum	-0.026240522
-3.2407608	a	-0.026240522
-3.2407608	adeliemörgæsir	-0.026240522
-3.2407608	verpa	-0.026240522
-3.2407608	geysistórum	-0.026240522
-3.2407608	nýlendum	-0.026240522
-3.2407608	ef	-0.026240522
-3.2407608	einhverjum	-0.026240522
-2.807455	hefur	-0.026240522
-2.6751297	verið	-0.026240522
-3.2407608	gefið	-0.026240522
-3.013614	nafn	-0.026240522
-2.4917753	þá	-0.026240522
-3.2407608	heitir	-0.026240522
-3.013614	nafni	-0.026240522
-3.2407608	áberandi	-0.026240522
-3.2407608	rákir	-0.026240522
-3.2407608	röð	-0.026240522
-3.2407608	holupytta	-0.026240522
-3.2407608	langs	-0.026240522
-2.4227753	eftir	-0.026240522
-3.2407608	skjaldvængjunum	-0.026240522
-3.2407608	grískri	-0.026240522
-3.2407608	rómverskri	-0.026240522
-3.2407608	goðafræði	-0.026240522
-3.2407608	persónugervingur	-0.026240522
-3.2407608	tunglsins	-0.026240522
-3.2407608	selena	-0.026240522
-2.6751297	nafnið	-0.026240522
-3.2407608	afganistan	-0.026240522
-3.2407608	merkir	-0.026240522
-3.2407608	land	-0.026240522
-3.2407608	afgana	-0.026240522
-3.2407608	aðblástur	-0.026240522
-2.807455	líka	-0.026240522
-3.2407608	gelísku	-0.026240522
-3.2407608	mögulega	-0.026240522
-2.6751297	vegna	-0.026240522
-3.2407608	norræna	-0.026240522
-3.2407608	áhrifa	-0.026240522
-2.4917753	þegar	-0.026240522
-3.2407608	vorið	-0.026240522
-3.013614	gengur	-0.026240522
-3.2407608	garð	-0.026240522
-3.2407608	notaði	-0.026240522
-3.013614	fólk	-0.026240522
-3.2407608	tannbursta	-0.026240522
-3.2407608	gamla	-0.026240522
-3.013614	daga	-0.026240522
-3.2407608	geirangur	-0.026240522
-3.2407608	liggur	-0.026240522
-3.2407608	geirangursfirði	-0.026240522
-3.2407608	inn	-0.026240522
-2.5738473	úr	-0.026240522
-3.2407608	stórfirði	-0.026240522
-3.2407608	eignirnar	-0.026240522
-3.013614	voru	-0.026240522
-2.0852768	af	-0.026240522
-3.2407608	ýmsu	-0.026240522
-3.2407608	tagi	-0.026240522
-3.2407608	alba	-0.026240522
-3.2407608	íslenskt	-0.026240522
-3.2407608	kvenmannsnafn	-0.026240522
-3.2407608	þýðir	-0.026240522
-3.013614	hin	-0.026240522
-3.2407608	hvíta	-0.026240522
-3.2407608	aðrir	-0.026240522
-3.2407608	setningarhlutar	-0.026240522
-3.2407608	sagnfylling	-0.026240522
-3.2407608	andlag	-0.026240522
-3.2407608	einkunn	-0.026240522
-3.2407608	viðlag	-0.026240522
-3.2407608	snælaugur	-0.026240522
-3.2407608	slökktu	-0.026240522
-3.013614	þessu	-0.026240522
-3.2407608	níutíu	-0.026240522
-3.2407608	fimm	-0.026240522
-3.2407608	mínútur	-0.026240522
-3.013614	margar	-0.026240522
-3.2407608	orsakir	-0.026240522
-3.2407608	lágu	-0.026240522
-2.6751297	þar	-0.049519915
-3.2407608	baki	-0.026240522
-3.2407608	hvaðan	-0.026240522
-3.013614	kom	-0.026240522
-3.2407608	nokkrum	-0.026240522
-3.2407608	árum	-0.026240522
-3.2407608	staðfest	-0.026240522
-3.2407608	einungis	-0.026240522
-2.807455	eitt	-0.026240522
-3.2407608	gen	-0.026240522
-3.2407608	y	-0.026240522
-3.2407608	litningnum	-0.026240522
-3.2407608	sumum	-0.026240522
-3.2407608	þykir	-0.026240522
-3.2407608	hjálpa	-0.026240522
-3.2407608	sofa	-0.026240522
-3.2407608	hærra	-0.026240522
-3.013614	undir	-0.026240522
-3.2407608	höfði	-0.026240522
-3.2407608	magnús	-0.026240522
-3.2407608	sigurðson	-0.026240522
-3.2407608	dat	-0.026240522
-3.2407608	sigldu	-0.026240522
-3.2407608	burtu	-0.026240522
-3.2407608	lyktin	-0.026240522
-3.2407608	fylgir	-0.026240522
-2.807455	oft	-0.026240522
-3.2407608	vindgangi	-0.026240522
-3.013614	stafar	-0.074118175
-3.2407608	breinnisteinssamböndum	-0.026240522
-3.013614	meðal	-0.026240522
-2.6751297	þeirra	-0.026240522
-3.2407608	átta	-0.026240522
-2.807455	tegundir	-0.026240522
-3.2407608	leðurblakna	-0.026240522
-3.2407608	fjórar	-0.026240522
-3.2407608	nagdýra	-0.026240522
-3.013614	tvær	-0.026240522
-3.2407608	skordýraætna	-0.026240522
-3.2407608	jagger	-0.026240522
-3.2407608	slökku	-0.026240522
-3.2407608	niðurteljaranum	-0.026240522
-3.2407608	málverk	-0.026240522
-3.2407608	sýnir	-0.026240522
-3.2407608	ragnarök	-0.026240522
-3.2407608	emil	-0.026240522
-3.2407608	doepler	-0.026240522
-3.2407608	frekara	-0.026240522
-3.2407608	lesefni	-0.026240522
-2.2220347	við	-0.026240522
-3.2407608	bendum	-0.026240522
-3.2407608	sérstaklega	-0.026240522
-3.2407608	bók	-0.026240522
-3.2407608	einsteins	-0.026240522
-3.2407608	sjálfs	-0.026240522
-3.2407608	afstæðiskenningin	-0.026240522
-3.2407608	sókn	-0.026240522
-3.013614	japana	-0.026240522
-3.2407608	hafði	-0.026240522
-3.2407608	stöðvuð	-0.026240522
-3.2407608	beðið	-0.026240522
-3.2407608	hroðalegan	-0.026240522
-3.2407608	ósigur	-0.026240522
-2.807455	öðrum	-0.026240522
-3.2407608	tilfellum	-0.026240522
-3.2407608	beita	-0.026240522
-3.2407608	lyfjum	-0.026240522
-3.2407608	hraða	-0.026240522
-2.3109086	eða	-0.026240522
-3.2407608	hægja	-0.026240522
-3.2407608	hjartslætti	-0.026240522
-3.2407608	konur	-0.026240522
-3.2407608	ættu	-0.026240522
-3.2407608	forðast	-0.026240522
-3.013614	nota	-0.026240522
-3.2407608	sápu	-0.026240522
-3.2407608	annað	-0.026240522
-3.2407608	herða	-0.026240522
-3.2407608	vörturnar	-0.026240522
-3.2407608	plöntur	-0.026240522
-3.2407608	fullu	-0.026240522
-3.2407608	ferlitna	-0.026240522
-3.2407608	geta	-0.026240522
-3.013614	komið	-0.026240522
-3.2407608	svanir	-0.026240522
-3.013614	teljast	-0.026240522
-3.2407608	andaættarinnar	-0.026240522
-3.2407608	eitthvað	-0.026240522
-3.013614	efni	-0.026240522
-3.2407608	matnum	-0.026240522
-3.2407608	heldur	-0.026240522
-3.2407608	lifandi	-0.026240522
-2.807455	tíma	-0.026240522
-3.2407608	stækkaði	-0.026240522
-3.2407608	borgin	-0.026240522
-3.2407608	mikið	-0.026240522
-3.2407608	inkar	-0.026240522
-3.2407608	kölluðust	-0.026240522
-3.2407608	indíánar	-0.026240522
-3.2407608	meginlandi	-0.026240522
-3.2407608	suður	-0.026240522
-3.2407608	ameríku	-0.026240522
-3.013614	hér	-0.05756553
-3.2407608	innrímið	-0.026240522
-3.2407608	feitletrað	-0.026240522
-3.2407608	sýna	-0.026240522
-3.2407608	skýrt	-0.026240522
-3.2407608	rem	-0.026240522
-3.013614	svefn	-0.026240522
-3.2407608	bliksvefn	-0.026240522
-3.2407608	nrem	-0.026240522
-3.2407608	forseti	-0.026240522
-3.013614	ítalíu	-0.026240522
-3.2407608	þjóðhöfðingi	-0.026240522
-3.2407608	fulltrúi	-0.026240522
-3.2407608	einingar	-0.026240522
-3.2407608	þjóðarinnar	-0.026240522
-3.013614	samkvæmt	-0.026240522
-3.2407608	stjórnarskránni	-0.026240522
-3.2407608	sumir	-0.026240522
-3.2407608	íþróttamenn	-0.026240522
-3.2407608	kjósa	-0.026240522
-3.2407608	fitu	-0.026240522
-3.2407608	meginorkugjafa	-0.026240522
-3.2407608	fremur	-0.026240522
-3.2407608	kolvetni	-0.026240522
-3.2407608	tveir	-0.026240522
-2.807455	menn	-0.026240522
-3.2407608	framan	-0.026240522
-3.013614	sitt	-0.074118175
-3.2407608	hvora	-0.026240522
-3.2407608	skyldi	-0.026240522
-3.013614	vera	-0.026240522
-3.2407608	hægt	-0.026240522
-3.2407608	afsanna	-0.026240522
-3.2407608	trúarbrögð	-0.026240522
-3.2407608	aðferðum	-0.026240522
-3.2407608	vísindanna	-0.026240522
-3.2407608	anita	-0.026240522
-3.2407608	kyn	-0.026240522
-2.6751297	jónsson	-0.026240522
-3.2407608	skráð	-0.026240522
-3.2407608	íslenskri	-0.026240522
-3.2407608	þýðingu	-0.026240522
-3.2407608	eldra	-0.026240522
-3.2407608	borgarinnar	-0.026240522
-3.2407608	pýþó	-0.026240522
-3.2407608	kvarkar	-0.026240522
-3.2407608	tilvist	-0.026240522
-3.2407608	sönnuð	-0.026240522
-3.2407608	eðlilegt	-0.026240522
-3.2407608	slíku	-0.026240522
-2.807455	landi	-0.026240522
-3.013614	sé	-0.026240522
-3.2407608	litið	-0.026240522
-3.2407608	jólin	-0.026240522
-3.2407608	hundar	-0.026240522
-2.4227753	hafa	-0.026240522
-3.2407608	gerðir	-0.026240522
-3.2407608	keilum	-0.026240522
-3.2407608	ljósgleypni	-0.026240522
-2.807455	tveimur	-0.026240522
-3.2407608	bylgjulengdum	-0.026240522
-3.2407608	hugtökin	-0.026240522
-3.2407608	jötunn	-0.026240522
-3.2407608	tröll	-0.026240522
-3.2407608	risi	-0.026240522
-3.2407608	nátengd	-0.026240522
-3.2407608	fyrstu	-0.026240522
-3.013614	einkenni	-0.026240522
-3.2407608	hundaæðis	-0.026240522
-3.2407608	höfuðverkur	-0.026240522
-2.807455	fyrsta	-0.026240522
-3.2407608	miðhandarbein	-0.026240522
-3.2407608	þumals	-0.026240522
-3.013614	einnig	-0.026240522
-3.2407608	styttra	-0.026240522
-3.2407608	gerir	-0.026240522
-3.2407608	þumalinn	-0.026240522
-3.013614	minni	-0.074118175
-3.2407608	einhver	-0.026240522
-3.2407608	sníkjudýr	-0.026240522
-2.807455	aðrar	-0.026240522
-3.2407608	lífverur	-0.026240522
-3.2407608	líkamanum	-0.026240522
-3.2407608	rykmaurar	-0.026240522
-3.2407608	kartöflur	-0.026240522
-3.2407608	hrísgrjón	-0.026240522
-3.2407608	pasta	-0.026240522
-3.2407608	brauð	-0.026240522
-3.2407608	kornvörur	-0.026240522
-3.2407608	ríkar	-0.026240522
-3.2407608	mjölva	-0.026240522
-3.2407608	járn	-0.026240522
-3.2407608	algengasti	-0.026240522
-3.2407608	málmurinn	-0.026240522
-3.2407608	tíunda	-0.026240522
-3.2407608	algengasta	-0.026240522
-3.2407608	frumefnið	-0.026240522
-3.2407608	alheiminum	-0.026240522
-3.2407608	ný	-0.026240522
-3.013614	kjarnorkuver	-0.026240522
-3.2407608	eiga	-0.026240522
-3.2407608	örugg	-0.026240522
-3.2407608	þekktustu	-0.026240522
-3.2407608	svörtuloft	-0.026240522
-3.2407608	sjávarhamrar	-0.026240522
-3.2407608	brennanlegt	-0.026240522
-3.2407608	mikla	-0.026240522
-3.2407608	brennt	-0.026240522
-3.013614	dæmi	-0.074118175
-3.2407608	guðshugmynd	-0.026240522
-3.2407608	aristótelesar	-0.026240522
-3.2407608	ferskvatnsflæði	-0.026240522
-3.2407608	skapaði	-0.026240522
-3.2407608	gróðurvinina	-0.026240522
-3.2407608	hraunið	-0.026240522
-3.2407608	litla	-0.026240522
-3.2407608	eyjan	-0.026240522
-3.2407608	tilheyrir	-0.026240522
-3.2407608	alaska	-0.026240522
-3.2407608	hluti	-0.026240522
-3.2407608	bandaríkjunum	-0.026240522
-3.2407608	slík	-0.026240522
-3.2407608	mein	-0.026240522
-3.2407608	heita	-0.026240522
-3.2407608	einu	-0.026240522
-3.2407608	hvítblæði	-0.026240522
-2.6751297	svo	-0.026240522
-3.013614	nokkrar	-0.026240522
-3.2407608	undirtegundir	-0.026240522
-3.2407608	hugmyndinni	-0.026240522
-3.2407608	sýningunni	-0.026240522
-3.2407608	lýsir	-0.026240522
-3.2407608	erla	-0.026240522
-3.2407608	mesta	-0.026240522
-3.2407608	ummál	-0.026240522
-3.2407608	brjóstkassa	-0.026240522
-3.2407608	mælt	-0.026240522
-3.2407608	þan	-0.026240522
-3.2407608	brjóstkassans	-0.026240522
-3.2407608	metið	-0.026240522
-3.2407608	mynd	-0.026240522
-3.2407608	aurora	-0.026240522
-3.2407608	borealis	-0.026240522
-3.2407608	telst	-0.026240522
-3.2407608	þjóðarframleiðslu	-0.026240522
-3.2407608	landsframleiðslu	-0.026240522
-3.2407608	fylla	-0.026240522
-3.2407608	sarpinn	-0.026240522
-3.2407608	þurfa	-0.026240522
-3.2407608	býflugurnar	-0.026240522
-3.2407608	heimsækja	-0.026240522
-3.2407608	fjölmörg	-0.026240522
-3.2407608	blóm	-0.026240522
-3.013614	þann	-0.026240522
-3.2407608	sautjánda	-0.026240522
-3.013614	nóvember	-0.026240522
-3.2407608	gerði	-0.026240522
-3.2407608	skyldur	-0.026240522
-3.2407608	snorra	-0.026240522
-3.2407608	sturlusyni	-0.026240522
-3.2407608	rófubeinið	-0.026240522
-3.2407608	raunar	-0.026240522
-3.2407608	sérstakt	-0.026240522
-3.013614	manna	-0.026240522
-3.013614	apa	-0.074118175
-3.2407608	hitabreyting	-0.026240522
-3.013614	alltaf	-0.026240522
-3.2407608	minnsta	-0.026240522
-3.2407608	kosti	-0.026240522
-3.013614	tvö	-0.026240522
-3.013614	stig	-0.026240522
-3.2407608	hófu	-0.026240522
-3.2407608	efnafræðingar	-0.026240522
-3.2407608	eðlisfræðingar	-0.026240522
-3.2407608	skilgreininguna	-0.026240522
-3.2407608	atómmassaeiningunni	-0.026240522
-3.2407608	síð	-0.026240522
-3.2407608	svipaða	-0.026240522
-3.2407608	merkingu	-0.026240522
-3.2407608	síðdegi	-0.026240522
-3.2407608	loks	-0.026240522
-3.2407608	allraheilagramessa	-0.026240522
-3.2407608	nánd	-0.026240522
-3.2407608	vetrarkomu	-0.026240522
-3.2407608	svipaðar	-0.026240522
-3.2407608	hefðir	-0.026240522
-3.2407608	fyrirfinnast	-0.026240522
-3.2407608	víða	-0.026240522
-3.2407608	bretlandseyjum	-0.026240522
-2.6751297	þó	-0.026240522
-3.2407608	svæðisbundnum	-0.026240522
-3.2407608	áherslum	-0.026240522
-3.2407608	sjást	-0.026240522
-3.2407608	ljósleit	-0.026240522
-3.2407608	skýjadeili	-0.026240522
-3.2407608	milli	-0.026240522
-3.2407608	lopanna	-0.026240522
-3.2407608	blár	-0.026240522
-3.2407608	himinn	-0.026240522
-2.6751297	frá	-0.026240522
-3.2407608	örófi	-0.026240522
-3.2407608	alda	-0.026240522
-3.2407608	leikið	-0.026240522
-3.2407608	leiki	-0.026240522
-2.807455	sér	-0.026240522
-3.2407608	skemmtunar	-0.026240522
-3.2407608	albert	-0.026240522
-3.2407608	íslenski	-0.026240522
-3.2407608	atvinnumaðurinn	-0.026240522
-3.2407608	knattspyrnu	-0.026240522
-3.013614	þessi	-0.026240522
-3.2407608	klukka	-0.026240522
-3.2407608	hringdi	-0.026240522
-3.013614	aftur	-0.026240522
-3.2407608	móti	-0.026240522
-2.807455	sama	-0.026240522
-3.2407608	bensínið	-0.026240522
-3.2407608	byrjar	-0.026240522
-3.013614	hins	-0.074118175
-3.2407608	vegar	-0.026240522
-3.2407608	hlaupa	-0.026240522
-3.2407608	kekki	-0.026240522
-3.2407608	áður	-0.026240522
-3.2407608	frostmarki	-0.026240522
-3.013614	náð	-0.026240522
-3.2407608	þau	-0.026240522
-3.2407608	oftast	-0.026240522
-3.2407608	disklaga	-0.026240522
-3.2407608	golden	-0.026240522
-3.2407608	ratio	-0.026240522
-3.2407608	hertogi	-0.026240522
-3.2407608	skamma	-0.026240522
-3.2407608	hríð	-0.026240522
-3.2407608	dó	-0.026240522
-3.2407608	dularfullum	-0.026240522
-3.2407608	hætti	-0.026240522
-3.2407608	alvörunni	-0.026240522
-3.2407608	bjóða	-0.026240522
-3.2407608	verða	-0.026240522
-3.2407608	jólasveinn	-0.026240522
-3.2407608	gráleitar	-0.026240522
-3.2407608	útfellingar	-0.026240522
-3.2407608	móbergi	-0.026240522
-3.2407608	vatn	-0.026240522
-3.2407608	leyst	-0.026240522
-3.013614	út	-0.026240522
-3.2407608	berginu	-0.026240522
-3.2407608	samkynhneigðir	-0.026240522
-3.2407608	fyrst	-0.026240522
-3.2407608	fremst	-0.026240522
-3.2407608	skilgreindir	-0.026240522
-3.2407608	kynhneigð	-0.026240522
-3.2407608	sinni	-0.026240522
-3.2407608	getur	-0.026240522
-3.2407608	gerst	-0.026240522
-3.2407608	klukkutíma	-0.026240522
-3.2407608	áin	-0.026240522
-3.2407608	eigu	-0.026240522
-3.2407608	óttars	-0.026240522
-3.2407608	yngvasonar	-0.026240522
-3.2407608	einars	-0.026240522
-3.2407608	sigfússonar	-0.026240522
-3.2407608	lillian	-0.026240522
-3.2407608	hver	-0.026240522
-3.2407608	syngur	-0.026240522
-3.013614	lag	-0.074118175
-3.2407608	síðan	-0.026240522
-3.2407608	boðið	-0.026240522
-3.2407608	hlutverk	-0.026240522
-3.013614	sjö	-0.026240522
-3.2407608	dögum	-0.026240522
-3.2407608	leikari	-0.026240522
-2.807455	hún	-0.026240522
-3.2407608	lærði	-0.026240522
-3.2407608	spírun	-0.026240522
-3.2407608	gróa	-0.026240522
-3.2407608	lífsferil	-0.026240522
-3.2407608	sveppa	-0.026240522
-3.2407608	héruðin	-0.026240522
-3.2407608	álava	-0.026240522
-3.2407608	vilhjálmur	-0.026240522
-3.2407608	neyddist	-0.026240522
-3.013614	smátt	-0.026240522
-3.2407608	taka	-0.026240522
-3.2407608	róttækari	-0.026240522
-3.2407608	sjónarmið	-0.026240522
-3.2407608	kalvínista	-0.026240522
-2.807455	mismunandi	-0.026240522
-3.2407608	tölvur	-0.026240522
-3.2407608	dag	-0.026240522
-3.2407608	miklar	-0.026240522
-3.2407608	deilur	-0.026240522
-2.807455	upp	-0.026240522
-3.2407608	sambandi	-0.026240522
-3.2407608	langlífi	-0.026240522
-3.2407608	kjarninn	-0.026240522
-3.2407608	samsettur	-0.026240522
-3.2407608	jákvætt	-0.026240522
-3.2407608	hlöðnum	-0.026240522
-3.2407608	róteindum	-0.026240522
-3.2407608	óhlöðnum	-0.026240522
-3.2407608	nifteindum	-0.026240522
-3.2407608	einar	-0.026240522
-3.2407608	þorsteinsson	-0.026240522
-3.2407608	fæddist	-0.026240522
-3.2407608	hvammi	-0.026240522
-3.2407608	norðurárdal	-0.026240522
-3.2407608	ólst	-0.026240522
-3.2407608	lágfletir	-0.026240522
-3.2407608	stundum	-0.026240522
-3.2407608	notaðir	-0.026240522
-3.2407608	arkitektúr	-0.026240522
-2.807455	þess	-0.05756553
-3.2407608	þykja	-0.026240522
-3.2407608	fallegir	-0.026240522
-3.2407608	kveikjum	-0.026240522
-3.2407608	kerti	-0.026240522
-3.2407608	berum	-0.026240522
-3.2407608	eld	-0.026240522
-3.2407608	kveiknum	-0.026240522
-3.2407608	afar	-0.026240522
-3.2407608	vitað	-0.026240522
-3.2407608	vistfræði	-0.026240522
-3.2407608	þessara	-0.026240522
-3.013614	tegunda	-0.026240522
-3.2407608	tindar	-0.026240522
-3.2407608	vikudagur	-0.026240522
-3.2407608	geturðu	-0.026240522
-3.2407608	sagt	-0.026240522
-3.2407608	mér	-0.026240522
-3.2407608	þróun	-0.026240522
-3.2407608	segja	-0.026240522
-3.2407608	hinn	-0.026240522
-3.2407608	lútherska	-0.026240522
-3.2407608	söfnuð	-0.026240522
-3.2407608	næst	-0.026240522
-3.2407608	ælir	-0.026240522
-3.2407608	dýrið	-0.026240522
-3.2407608	fæðunni	-0.026240522
-3.2407608	munn	-0.026240522
-3.2407608	smá	-0.026240522
-3.2407608	skömmtum	-0.026240522
-3.2407608	margir	-0.026240522
-3.2407608	telja	-0.026240522
-3.2407608	fuglar	-0.026240522
-3.013614	þær	-0.026240522
-3.2407608	núlifandi	-0.026240522
-3.2407608	dýrategundir	-0.026240522
-3.2407608	skyldastar	-0.026240522
-3.2407608	risaeðlum	-0.026240522
-3.2407608	ýmsir	-0.026240522
-3.2407608	athyglisverðir	-0.026240522
-3.2407608	forngripir	-0.026240522
-3.2407608	fundist	-0.026240522
-3.2407608	þessar	-0.026240522
-3.2407608	rannsóknir	-0.026240522
-2.807455	þessa	-0.026240522
-3.2407608	brennudóma	-0.026240522
-3.2407608	lesa	-0.026240522
-3.2407608	doktorsritgerð	-0.026240522
-3.2407608	söfnum	-0.026240522
-3.2407608	orðabókar	-0.026240522
-3.2407608	háskólans	-0.026240522
-3.2407608	orðasambandið	-0.026240522
-3.2407608	rúsínan	-0.026240522
-3.2407608	pylsuendanum	-0.026240522
-3.2407608	nútímamáli	-0.026240522
-3.2407608	sjálfstætt	-0.026240522
-3.2407608	ríki	-0.026240522
-3.2407608	árið	-0.026240522
-3.2407608	nítján	-0.026240522
-3.2407608	hundrað	-0.026240522
-3.2407608	fjörutíu	-0.026240522
-3.2407608	fjórir	-0.026240522
-3.2407608	enn	-0.026240522
-3.2407608	hert	-0.026240522
-3.2407608	kröfugerð	-0.026240522
-3.2407608	táknmál	-0.026240522
-3.2407608	alvöru	-0.026240522
-3.2407608	mál	-0.026240522
-3.013614	önnur	-0.026240522
-3.2407608	tungumál	-0.026240522
-3.2407608	vísindavefnum	-0.026240522
-3.2407608	hverju	-0.026240522
-3.2407608	jónsmessa	-0.026240522
-3.2407608	dregið	-0.026240522
-3.013614	stað	-0.074118175
-3.2407608	lirfur	-0.026240522
-3.2407608	éta	-0.026240522
-3.2407608	laufblöð	-0.026240522
-3.2407608	ýmsum	-0.026240522
-3.2407608	trjátegundum	-0.026240522
-3.2407608	lögun	-0.026240522
-3.2407608	ferilsins	-0.026240522
-3.2407608	útskýrist	-0.026240522
-3.2407608	annars	-0.026240522
-3.2407608	hlutfalli	-0.026240522
-3.2407608	yfirborðs	-0.026240522
-3.2407608	rúmmáls	-0.026240522
-3.2407608	kjarnans	-0.026240522
-3.2407608	biskup	-0.026240522
-3.2407608	íslands	-0.026240522
-3.2407608	vígslubiskupar	-0.026240522
-3.2407608	prófastar	-0.026240522
-3.2407608	prestar	-0.026240522
-3.2407608	þjóðkirkjunnar	-0.026240522
-2.807455	íslenska	-0.026240522
-3.2407608	launamanninn	-0.026240522
-3.2407608	ritum	-0.026240522
-3.2407608	náttúrufræðingnum	-0.026240522
-3.2407608	smellið	-0.026240522
-3.2407608	myndina	-0.026240522
-3.2407608	skoða	-0.026240522
-3.2407608	stærra	-0.026240522
-3.2407608	eintak	-0.026240522
-3.013614	henni	-0.026240522
-3.2407608	prósent	-0.026240522
-3.2407608	börnum	-0.026240522
-3.013614	heilalömun	-0.026240522
-3.2407608	meðfædda	-0.026240522
-3.2407608	alaotran	-0.026240522
-3.2407608	gentle	-0.026240522
-3.2407608	lemur	-0.026240522
-3.2407608	finnst	-0.026240522
-3.2407608	madagaskar	-0.026240522
-3.2407608	orkuna	-0.026240522
-3.2407608	fá	-0.026240522
-3.2407608	flestar	-0.026240522
-3.2407608	sólinni	-0.026240522
-3.2407608	kallast	-0.026240522
-3.2407608	efnaframleiðsla	-0.026240522
-3.2407608	ljóstillífun	-0.026240522
-3.2407608	miðju	-0.026240522
-3.2407608	gígsins	-0.026240522
-3.2407608	mikil	-0.026240522
-3.2407608	sigðarlaga	-0.026240522
-3.2407608	bunga	-0.026240522
-3.2407608	fjall	-0.026240522
-3.2407608	ólíkt	-0.026240522
-3.2407608	býflugum	-0.026240522
-3.2407608	stór	-0.026240522
-3.2407608	bú	-0.026240522
-3.2407608	ofanjarðar	-0.026240522
-3.2407608	fyrirtækið	-0.026240522
-3.2407608	alfarið	-0.026240522
-3.2407608	orkuveitu	-0.026240522
-3.2407608	reykjavíkur	-0.026240522
-3.2407608	nóa	-0.026240522
-3.2407608	mun	-0.026240522
-3.2407608	rigna	-0.026240522
-3.2407608	jón	-0.026240522
-3.2407608	ólafur	-0.026240522
-3.2407608	úrkula	-0.026240522
-3.2407608	vonar	-0.026240522
-3.2407608	herra	-0.026240522
-3.2407608	toshizo	-0.026240522
-3.2407608	hugmynd	-0.026240522
-3.2407608	maja	-0.026240522
-3.2407608	spilaðu	-0.026240522
-3.013614	þannig	-0.026240522
-3.013614	uppruni	-0.026240522
-3.2407608	umdeildur	-0.026240522
-3.2407608	heimildir	-0.026240522
-3.2407608	fáar	-0.026240522
-3.2407608	öll	-0.026240522
-3.2407608	skipti	-0.026240522
-3.2407608	státaði	-0.026240522
-3.2407608	sjálfstæðisflokkurinn	-0.026240522
-3.2407608	þingmanni	-0.026240522
-3.2407608	vestfjarða	-0.026240522
-3.2407608	færslan	-0.026240522
-3.2407608	mismikil	-0.026240522
-3.2407608	fjarlægð	-0.026240522
-3.2407608	bjagast	-0.026240522
-3.2407608	aflagast	-0.026240522
-3.2407608	bergið	-0.026240522
-3.2407608	kring	-0.026240522
-3.2407608	sjöttu	-0.026240522
-3.2407608	röksemdina	-0.026240522
-3.2407608	gyðingar	-0.026240522
-3.2407608	sjálfir	-0.026240522
-3.2407608	finna	-0.026240522
-3.2407608	fjölda	-0.026240522
-3.2407608	áttfætlumaura	-0.026240522
-3.2407608	skólinn	-0.026240522
-3.013614	fær	-0.026240522
-3.2407608	frammistöðu	-0.026240522
-3.013614	sína	-0.074118175
-3.2407608	kirkjur	-0.026240522
-3.2407608	hverfinu	-0.026240522
-3.2407608	laugarneskirkja	-0.026240522
-3.2407608	áskirkja	-0.026240522
-3.2407608	langholtskirkja	-0.026240522
-3.2407608	verkið	-0.026240522
-3.2407608	hlaut	-0.026240522
-3.2407608	abel	-0.026240522
-3.2407608	verðlaun	-0.026240522
-3.2407608	frönsku	-0.026240522
-3.2407608	akademíunnar	-0.026240522
-3.2407608	verðlaunaféð	-0.026240522
-3.2407608	rann	-0.026240522
-3.013614	móður	-0.026240522
-3.2407608	orðum	-0.026240522
-3.2407608	nægilega	-0.026240522
-3.2407608	lík	-0.026240522
-3.2407608	vel	-0.026240522
-3.2407608	þekktum	-0.026240522
-3.2407608	þaulrannsökuðum	-0.026240522
-3.2407608	tungumálum	-0.026240522
-3.2407608	víst	-0.026240522
-3.2407608	allir	-0.026240522
-3.2407608	sammála	-0.026240522
-3.2407608	skuli	-0.026240522
-3.2407608	kristileg	-0.026240522
-3.2407608	gildi	-0.026240522
-3.2407608	aðaleinkunn	-0.026240522
-3.2407608	reiknast	-0.026240522
-3.2407608	aukastöfum	-0.026240522
-3.2407608	pyndingar	-0.026240522
-3.2407608	nauðungarvinna	-0.026240522
-3.2407608	bannaðar	-0.026240522
-3.013614	öllu	-0.026240522
-3.2407608	ein	-0.026240522
-3.2407608	fleiri	-0.026240522
-3.2407608	sóknir	-0.026240522
-3.2407608	þjónað	-0.026240522
-3.2407608	sóknarpresti	-0.026240522
-3.2407608	mynda	-0.026240522
-3.2407608	saman	-0.026240522
-3.2407608	prestakall	-0.026240522
-3.2407608	fornu	-0.026240522
-3.2407608	eingöngu	-0.026240522
-3.2407608	notað	-0.026240522
-3.2407608	innri	-0.026240522
-3.013614	hluta	-0.026240522
-3.2407608	fjarðarins	-0.026240522
-3.2407608	sýking	-0.026240522
-3.2407608	völdum	-0.026240522
-3.2407608	legíónella	-0.026240522
-3.2407608	birtist	-0.026240522
-3.2407608	sjúkdómsmyndum	-0.026240522
-3.2407608	líparít	-0.026240522
-3.2407608	hallast	-0.026240522
-3.2407608	meira	-0.026240522
-3.2407608	líkamlegum	-0.026240522
-3.2407608	skýringarþáttum	-0.026240522
-3.2407608	heiti	-0.026240522
-3.2407608	snarað	-0.026240522
-3.013614	yfir	-0.026240522
-3.2407608	dönsku	-0.026240522
-3.2407608	sauðárkrókur	-0.026240522
-3.2407608	byggður	-0.026240522
-3.2407608	jarðarinnar	-0.026240522
-3.2407608	sauðár	-0.026240522
-3.2407608	athuganir	-0.026240522
-3.2407608	litblindu	-0.026240522
-3.2407608	fólki	-0.026240522
-3.2407608	styðja	-0.026240522
-3.2407608	kenningu	-0.026240522
-3.2407608	flytur	-0.026240522
-3.2407608	ari	-0.026240522
-3.2407608	lög	-0.026240522
-3.2407608	úlfarnir	-0.026240522
-3.2407608	geri	-0.026240522
-3.2407608	freki	-0.026240522
-3.2407608	fylgja	-0.026240522
-3.2407608	óðni	-0.026240522
-3.2407608	hrygnir	-0.026240522
-3.2407608	þorskurinn	-0.026240522
-3.2407608	vorin	-0.026240522
-3.2407608	fílar	-0.026240522
-3.2407608	þungir	-0.026240522
-3.2407608	fæðast	-0.026240522
-3.2407608	nýja	-0.026240522
-3.2407608	númer	-0.026240522
-3.2407608	fékk	-0.026240522
-3.2407608	heitið	-0.026240522
-3.2407608	kennitala	-0.026240522
-3.2407608	innihélt	-0.026240522
-3.2407608	tíu	-0.026240522
-3.2407608	tölustafi	-0.026240522
-3.2407608	lill	-0.026240522
-3.2407608	opnaðu	-0.026240522
-3.2407608	dagatalið	-0.026240522
-3.2407608	mitt	-0.026240522
-3.2407608	áætlaðar	-0.026240522
-3.2407608	eftirstöðvar	-0.026240522
-3.2407608	höfuðstóls	-0.026240522
-3.2407608	áfallnir	-0.026240522
-3.2407608	vextir	-0.026240522
-3.2407608	höfuðstólsgreiðslur	-0.026240522
-3.2407608	tryggingarsjóðs	-0.026240522
-3.2407608	innstæðueigenda	-0.026240522
-3.2407608	fjárfesta	-0.026240522
-3.2407608	svavars	-0.026240522
-3.2407608	samninganna	-0.026240522
-3.2407608	láki	-0.026240522
-3.2407608	kveiktu	-0.026240522
-3.2407608	sjónvarpinu	-0.026240522
-3.2407608	undirstöðusetning	-0.026240522
-3.2407608	kynna	-0.026240522
-3.2407608	fullyrðingin	-0.026240522
-3.2407608	sönn	-0.026240522
-3.2407608	andþyngdin	-0.026240522
-3.2407608	þyrfti	-0.026240522
-3.2407608	nefnilega	-0.026240522
-3.2407608	verka	-0.026240522
-3.013614	alla	-0.026240522
-3.2407608	massa	-0.026240522
-3.2407608	tilteknum	-0.026240522
-3.2407608	algengir	-0.026240522
-3.2407608	útbreiddir	-0.026240522
-3.2407608	komu	-0.026240522
-3.2407608	ýmis	-0.026240522
-3.2407608	form	-0.026240522
-3.2407608	bætist	-0.026240522
-3.2407608	almenn	-0.026240522
-3.2407608	töf	-0.026240522
-3.2407608	bylgjunnar	-0.026240522
-3.013614	næsta	-0.026240522
-3.2407608	laugardag	-0.026240522
-3.2407608	verður	-0.026240522
-3.2407608	fullt	-0.026240522
-3.2407608	tungl	-0.026240522
-3.2407608	leið	-0.026240522
-3.2407608	ég	-0.026240522
-3.2407608	þrjár	-0.026240522
-3.2407608	stórar	-0.026240522
-3.2407608	hrauntungur	-0.026240522
-3.2407608	runnið	-0.026240522
-3.2407608	búrfelli	-0.026240522
-3.2407608	allar	-0.026240522
-3.2407608	sjávar	-0.026240522
-3.2407608	jóhannesarguðspjalli	-0.026240522
-3.2407608	fól	-0.026240522
-3.2407608	jesús	-0.026240522
-3.2407608	dauðastundinni	-0.026240522
-3.2407608	annast	-0.026240522
-3.2407608	hússtyrjan	-0.026240522
-3.2407608	lifir	-0.026240522
-3.2407608	ám	-0.026240522
-3.2407608	austur	-0.026240522
-3.2407608	einkum	-0.026240522
-3.2407608	ríkjum	-0.026240522
-3.2407608	fyrrum	-0.026240522
-3.2407608	sovétríkjanna	-0.026240522
-3.2407608	yfirborð	-0.026240522
-3.2407608	dalsins	-0.026240522
-3.2407608	miklum	-0.026240522
-3.2407608	mótað	-0.026240522
-3.2407608	vatni	-0.026240522
-3.2407608	insúlínskorti	-0.026240522
-3.2407608	fækkunar	-0.026240522
-3.2407608	beta	-0.026240522
-3.2407608	frumna	-0.026240522
-3.2407608	yfirmenn	-0.026240522
-3.2407608	alveg	-0.026240522
-3.2407608	fúsir	-0.026240522
-3.2407608	senda	-0.026240522
-3.2407608	dauðann	-0.026240522
-3.2407608	hinir	-0.026240522
-3.2407608	sjálfsögðu	-0.026240522
-3.2407608	fer	-0.026240522
-3.2407608	staðháttum	-0.026240522
-3.2407608	baldvin	-0.026240522
-3.2407608	hversu	-0.026240522
-3.2407608	marga	-0.026240522
-3.2407608	fríi	-0.026240522
-3.2407608	þátttökunni	-0.026240522
-3.2407608	íslendingurinn	-0.026240522
-3.2407608	keppir	-0.026240522
-3.2407608	maraþonhlaupi	-0.026240522
-3.2407608	ólympíuleikum	-0.026240522
-3.2407608	angraði	-0.026240522
-3.2407608	bæði	-0.026240522
-3.2407608	vegalengd	-0.026240522
-3.2407608	massi	-0.026240522
-3.2407608	spanna	-0.026240522
-3.2407608	vítt	-0.026240522
-3.2407608	svið	-0.026240522
-3.2407608	tölum	-0.026240522
-3.2407608	stjörnuþoka	-0.026240522
-3.2407608	ákveðnu	-0.026240522
-3.2407608	merki	-0.026240522
-3.2407608	nýárshátíð	-0.026240522
-3.2407608	sækja	-0.026240522
-3.2407608	milljónir	-0.026240522
-3.2407608	manns	-0.026240522
-3.2407608	hofið	-0.026240522
-3.2407608	starf	-0.026240522
-3.2407608	stuðningsfjölskyldunnar	-0.026240522
-3.2407608	krefst	-0.026240522
-3.2407608	myndi	-0.026240522
-3.2407608	náin	-0.026240522
-3.2407608	tengsl	-0.026240522
-3.2407608	barnið	-0.026240522
-3.2407608	leita	-0.026240522
-3.2407608	börnin	-0.026240522
-3.2407608	foreldranna	-0.026240522
-3.2407608	aðstæður	-0.026240522
-3.2407608	vændiskonur	-0.026240522
-3.2407608	hlutgerðar	-0.026240522
-3.2407608	íslenskaði	-0.026240522
-3.2407608	helstu	-0.026240522
-3.2407608	demantanámur	-0.026240522
-3.2407608	heims	-0.026240522
-3.2407608	fyrr	-0.026240522
-3.2407608	nú	-0.026240522
-3.2407608	fleiru	-0.026240522
-3.2407608	hyggja	-0.026240522
-3.2407608	lokið	-0.026240522
-3.2407608	lykillinn	-0.026240522
-3.2407608	tilbúinn	-0.026240522
-3.2407608	notkunar	-0.026240522
-3.2407608	andi	-0.026240522
-3.2407608	tölvunni	-0.026240522
-3.2407608	erling	-0.026240522
-3.2407608	ólafsson	-0.026240522
-3.2407608	hjá	-0.026240522
-3.2407608	náttúrufræðistofnun	-0.026240522
-3.2407608	þakkir	-0.026240522
-3.2407608	aðstoð	-0.026240522
-3.2407608	gerð	-0.026240522
-3.2407608	svars	-0.026240522
-3.2407608	ekkert	-0.026240522
-3.2407608	endurkastar	-0.026240522
-3.2407608	ljósi	-0.026240522
-3.2407608	fellur	-0.026240522
-3.2407608	lagi	-0.026240522
-3.2407608	nefna	-0.026240522
-3.2407608	arftaki	-0.026240522
-3.2407608	árni	-0.026240522
-3.2407608	skáld	-0.026240522
-3.2407608	slíkur	-0.026240522
-3.2407608	flestrar	-0.026240522
-3.2407608	heimspekilegrar	-0.026240522
-3.2407608	ráðvillu	-0.026240522
-3.2407608	philosophy	-0.026240522
-3.2407608	pages	-0.026240522
-3.2407608	garth	-0.026240522
-3.2407608	kemerling	-0.026240522
-3.2407608	magngeir	-0.026240522
-3.2407608	hvenær	-0.026240522
-3.2407608	kemur	-0.026240522
-3.2407608	ásinn	-0.026240522
-3.2407608	deildin	-0.026240522
-3.2407608	rekin	-0.026240522
-3.2407608	knattspyrnusambandinu	-0.026240522
-3.2407608	starfið	-0.026240522
-3.2407608	starfsheitið	-0.026240522
-3.2407608	lögverndað	-0.026240522
-3.2407608	fyrirtæki	-0.026240522
-3.2407608	sjá	-0.026240522
-3.2407608	verð	-0.026240522
-3.2407608	afurða	-0.026240522
-3.2407608	sinna	-0.026240522
-3.013614	hækka	-0.026240522
-3.2407608	atvinnumarkaði	-0.026240522
-3.2407608	launin	-0.026240522

\2-grams:
-0.98061734	því </s>	0
-0.8004916	millitíðinni </s>	0
-0.8004916	heimsvísu </s>	0
-0.8004916	austan </s>	0
-0.9236433	mjög </s>	0
-0.8004916	sjúkdómsferlinum </s>	0
-0.8004916	klukkan </s>	0
-0.9418166	hans </s>	0
-0.8004916	gleðiefni </s>	0
-0.9957353	það </s>	0
-0.8004916	raunverulegt </s>	0
-0.8894302	evrópu </s>	0
-0.9418166	fram </s>	0
-0.8004916	forseta </s>	0
-0.8004916	mánaðar </s>	0
-0.8004916	a </s>	0
-0.8004916	nýlendum </s>	0
-0.8894302	nafni </s>	0
-0.8004916	skjaldvængjunum </s>	0
-0.8004916	selena </s>	0
-0.8004916	afgana </s>	0
-0.9236433	líka </s>	0
-0.8004916	áhrifa </s>	0
-0.8004916	garð </s>	0
-0.8894302	daga </s>	0
-0.8004916	stórfirði </s>	0
-0.8004916	tagi </s>	0
-0.8004916	hvíta </s>	0
-0.8004916	viðlag </s>	0
-0.8004916	mínútur </s>	0
-0.8894302	baki </s>	0
-0.8004916	litningnum </s>	0
-0.8004916	höfði </s>	0
-0.8004916	dat </s>	0
-0.8004916	burtu </s>	0
-0.8004916	breinnisteinssamböndum </s>	0
-0.9418166	þeirra </s>	0
-0.8004916	skordýraætna </s>	0
-0.8004916	niðurteljaranum </s>	0
-0.8004916	doepler </s>	0
-0.8004916	afstæðiskenningin </s>	0
-0.8004916	ósigur </s>	0
-0.8004916	hjartslætti </s>	0
-0.8004916	vörturnar </s>	0
-0.8004916	andaættarinnar </s>	0
-0.8004916	lifandi </s>	0
-0.9236433	tíma </s>	0
-0.8004916	mikið </s>	0
-0.8004916	ameríku </s>	0
-0.8004916	skýrt </s>	0
-0.8894302	svefn </s>	0
-0.8004916	stjórnarskránni </s>	0
-0.8004916	kolvetni </s>	0
-0.8894302	hvora </s>	0
-0.8004916	vísindanna </s>	0
-0.8004916	þýðingu </s>	0
-0.8004916	pýþó </s>	0
-0.8004916	sönnuð </s>	0
-0.8004916	jólin </s>	0
-0.8004916	bylgjulengdum </s>	0
-0.8004916	nátengd </s>	0
-0.8004916	höfuðverkur </s>	0
-0.6087682	minni </s>	0
-0.8004916	rykmaurar </s>	0
-0.8004916	mjölva </s>	0
-0.8004916	alheiminum </s>	0
-0.8894302	kjarnorkuver </s>	0
-0.8004916	örugg </s>	0
-0.8004916	sjávarhamrar </s>	0
-0.8004916	brennt </s>	0
-0.8004916	aristótelesar </s>	0
-0.8004916	hraunið </s>	0
-0.8004916	bandaríkjunum </s>	0
-0.9418166	svo </s>	0
-0.8004916	undirtegundir </s>	0
-0.8004916	metið </s>	0
-0.8004916	borealis </s>	0
-0.8004916	landsframleiðslu </s>	0
-0.8004916	blóm </s>	0
-0.8894302	nóvember </s>	0
-0.8004916	sturlusyni </s>	0
-0.8894302	manna </s>	0
-0.6087682	apa </s>	0
-0.8894302	stig </s>	0
-0.8004916	atómmassaeiningunni </s>	0
-0.8004916	síðdegi </s>	0
-0.8004916	vetrarkomu </s>	0
-0.8004916	áherslum </s>	0
-0.8004916	himinn </s>	0
-0.8004916	skemmtunar </s>	0
-0.8004916	knattspyrnu </s>	0
-0.8894302	náð </s>	0
-0.8004916	disklaga </s>	0
-0.8004916	ratio </s>	0
-0.8004916	hætti </s>	0
-0.8004916	jólasveinn </s>	0
-0.8004916	berginu </s>	0
-0.8004916	sinni </s>	0
-0.8004916	klukkutíma </s>	0
-0.8004916	sigfússonar </s>	0
-0.6087682	lag </s>	0
-0.8004916	leikari </s>	0
-0.8004916	sveppa </s>	0
-0.8004916	álava </s>	0
-0.8004916	kalvínista </s>	0
-0.8004916	dag </s>	0
-0.9236433	upp </s>	0
-0.8004916	nifteindum </s>	0
-0.8004916	fallegir </s>	0
-0.8004916	kveiknum </s>	0
-0.8894302	tegunda </s>	0
-0.8004916	söfnuð </s>	0
-0.8004916	skömmtum </s>	0
-0.8004916	risaeðlum </s>	0
-0.8004916	rannsóknir </s>	0
-0.8004916	nútímamáli </s>	0
-0.8004916	kröfugerð </s>	0
-0.8004916	tungumál </s>	0
-0.8004916	dregið </s>	0
-0.6087682	stað </s>	0
-0.8004916	trjátegundum </s>	0
-0.8004916	kjarnans </s>	0
-0.8004916	þjóðkirkjunnar </s>	0
-0.8004916	launamanninn </s>	0
-0.8004916	náttúrufræðingnum </s>	0
-0.8894302	henni </s>	0
-0.8894302	heilalömun </s>	0
-0.8004916	madagaskar </s>	0
-0.8004916	ljóstillífun </s>	0
-0.8004916	fjall </s>	0
-0.8004916	ofanjarðar </s>	0
-0.8004916	reykjavíkur </s>	0
-0.8004916	hugmynd </s>	0
-0.8004916	fáar </s>	0
-0.8004916	vestfjarða </s>	0
-0.8004916	kring </s>	0
-0.8004916	sjálfir </s>	0
-0.8004916	áttfætlumaura </s>	0
-0.6087682	sína </s>	0
-0.8004916	langholtskirkja </s>	0
-0.8004916	tungumálum </s>	0
-0.8004916	gildi </s>	0
-0.8004916	aukastöfum </s>	0
-0.8894302	öllu </s>	0
-0.8004916	prestakall </s>	0
-0.8004916	fjarðarins </s>	0
-0.8004916	sjúkdómsmyndum </s>	0
-0.8004916	líparít </s>	0
-0.8004916	skýringarþáttum </s>	0
-0.8004916	sauðár </s>	0
-0.8004916	kenningu </s>	0
-0.8004916	lög </s>	0
-0.8004916	óðni </s>	0
-0.8004916	vorin </s>	0
-0.8004916	fæðast </s>	0
-0.8004916	tölustafi </s>	0
-0.8004916	mitt </s>	0
-0.8004916	samninganna </s>	0
-0.8004916	sjónvarpinu </s>	0
-0.8004916	sönn </s>	0
-0.8004916	bylgjunnar </s>	0
-0.8004916	tungl </s>	0
-0.8004916	ég </s>	0
-0.8004916	sjávar </s>	0
-0.8004916	sovétríkjanna </s>	0
-0.8004916	vatni </s>	0
-0.8004916	frumna </s>	0
-0.8004916	hinir </s>	0
-0.8004916	staðháttum </s>	0
-0.8004916	fríi </s>	0
-0.8004916	ólympíuleikum </s>	0
-0.8004916	svið </s>	0
-0.8004916	merki </s>	0
-0.8004916	hofið </s>	0
-0.8004916	barnið </s>	0
-0.8004916	aðstæður </s>	0
-0.8004916	hlutgerðar </s>	0
-0.8004916	íslenskaði </s>	0
-0.8004916	nú </s>	0
-0.8004916	hyggja </s>	0
-0.8004916	notkunar </s>	0
-0.8004916	tölvunni </s>	0
-0.8004916	svars </s>	0
-0.8004916	fellur </s>	0
-0.8004916	skáld </s>	0
-0.8004916	ráðvillu </s>	0
-0.8004916	kemerling </s>	0
-0.8004916	ásinn </s>	0
-0.8004916	knattspyrnusambandinu </s>	0
-0.8004916	lögverndað </s>	0
-0.8894302	hækka </s>	0
-2.6448026	<s> nema	-0.0052297306
-1.2251605	gagn nema	-0.056615405
-1.7542467	<s> að	-0.056615405
-1.3138628	nema að	-0.0052297306
-1.6177266	því að	-0.056615405
-1.6356924	um að	-0.056615405
-1.661993	eru að	-0.056615405
-1.2591047	er að	-0.056615405
-1.469977	honum að	-0.056615405
-1.1086849	dæminu að	-0.056615405
-0.6138373	til að	-0.05661537
-1.6407449	var að	-0.056615405
-1.469977	fram að	-0.0052297306
-1.5375987	má að	-0.056615405
-1.469977	verið að	-0.056615405
-1.5590245	eftir að	-0.056615405
-1.4830331	þar að	-0.056615405
-1.1086849	staðfest að	-0.056615405
-1.1086849	hjálpa að	-0.056615405
-1.1086849	ættu að	-0.056615405
-1.1086849	forðast að	-0.056615405
-1.1086849	kjósa að	-0.056615405
-1.1086849	hægt að	-0.056615405
-1.1086849	eiga að	-0.056615405
-1.1086849	hugmyndinni að	-0.056615405
-1.1086849	býflugurnar að	-0.056615405
-1.3138628	alltaf að	-0.056615405
-1.1086849	eðlisfræðingar að	-0.056615405
-1.3138628	vegar að	-0.056615405
-0.9119113	þess að	-0.056615405
-1.1086849	eld að	-0.056615405
-1.1086849	telja að	-0.056615405
-1.3138628	þannig að	-0.056615405
-1.1086849	víst að	-0.056615405
-1.1086849	meira að	-0.056615405
-1.1086849	nefnilega að	-0.056615405
-1.1086849	dauðastundinni að	-0.056615405
-1.1086849	fúsir að	-0.056615405
-1.1086849	fleiru að	-0.056615405
-2.7485497	að maður	-0.0052297306
-1.227879	maður hafi	-0.0052297306
-1.227879	hafi kannski	-0.0052297306
-1.227879	kannski gleymt	-0.0052297306
-2.3001387	<s> því	-0.056615405
-1.1919398	gleymt því	-0.0052297306
-2.1516473	á því	-0.056615405
-1.939973	er því	-0.056615405
-1.1919398	tengist því	-0.056615405
-1.8119783	hann því	-0.056615405
-2.1719968	og því	-0.056615405
-1.1919398	merkir því	-0.056615405
-1.853197	þegar því	-0.056615405
-2.031037	af því	-0.0052297306
-1.1919398	leið því	-0.056615405
-1.2831323	<s> í	-0.043187857
-1.6412627	að í	-0.056615405
-1.5564078	því í	-0.0052297306
-1.4860232	þeir í	-0.056615405
-1.3471997	með í	-0.056615405
-1.5566466	er í	-0.056615405
-1.088752	bæ í	-0.056615405
-1.6736476	til í	-0.056615405
-1.4860232	hann í	-0.056615405
-1.5771586	var í	-0.056615405
-1.6215808	og í	-0.056615405
-1.088752	lyfjabirgðir í	-0.056615405
-1.088752	verpa í	-0.056615405
-1.2823212	gengur í	-0.0052297306
-1.088752	tannbursta í	-0.056615405
-1.088752	liggur í	-0.056615405
-1.2823212	efni í	-0.056615405
-1.2823212	sé í	-0.056615405
-1.088752	lífverur í	-0.056615405
-1.088752	frumefnið í	-0.056615405
-1.2823212	nóvember í	-0.056615405
-1.088752	atvinnumaðurinn í	-0.056615405
-1.088752	hlaupa í	-0.056615405
-1.088752	hertogi í	-0.056615405
-1.088752	útfellingar í	-0.056615405
-1.088752	hlutverk í	-0.056615405
-1.088752	tölvur í	-0.056615405
-1.3723371	upp í	-0.056615405
-1.088752	fæddist í	-0.056615405
-1.088752	hvammi í	-0.056615405
-1.088752	notaðir í	-0.056615405
-1.088752	munn í	-0.056615405
-1.088752	lesa í	-0.0052297306
-1.088752	rúsínan í	-0.056615405
-1.088752	alfarið í	-0.056615405
-1.088752	rigna í	-0.056615405
-1.088752	bergið í	-0.056615405
-1.088752	kirkjur í	-0.056615405
-1.088752	birtist í	-0.056615405
-1.088752	lifir í	-0.056615405
-1.088752	ám í	-0.056615405
-1.088752	einkum í	-0.056615405
-1.088752	keppir í	-0.056615405
-1.088752	andi í	-0.056615405
-2.783237	í millitíðinni	-0.0052297306
-2.4430609	<s> ekki	-0.056615405
-2.1309226	því ekki	-0.056615405
-2.0693858	er ekki	-0.056615405
-2.105598	en ekki	-0.056615405
-1.7652462	þó ekki	-0.056615405
-2.0320637	ekki liggja	-0.056615405
-1.2251605	holupytta liggja	-0.056615405
-2.2711723	<s> fyrir	-0.056615405
-1.4695834	liggja fyrir	-0.056615405
-1.4695834	borgarfjörð fyrir	-0.056615405
-2.2449543	og fyrir	-0.056615405
-1.6171737	menn fyrir	-0.0052297306
-1.199057	skráð fyrir	-0.056615405
-1.199057	gróðurvinina fyrir	-0.056615405
-1.4695834	stig fyrir	-0.056615405
-1.199057	þakkir fyrir	-0.056615405
-2.1943188	fyrir tölur	-0.056615405
-1.8352511	<s> um	-0.021691881
-1.1849372	tölur um	-0.056615405
-1.1849372	tala um	-0.056615405
-2.0635462	til um	-0.056615405
-1.9364195	við um	-0.056615405
-1.4436185	einnig um	-0.056615405
-0.7881139	dæmi um	-0.056615405
-1.1849372	vitað um	-0.056615405
-1.1849372	mér um	-0.056615405
-1.1849372	segja um	-0.056615405
-1.1849372	sammála um	-0.056615405
-1.1849372	notað um	-0.056615405
-1.1849372	tölum um	-0.056615405
-2.3516843	um árleg	-0.056615405
-1.227879	árleg dauðsföll	-0.056615405
-1.6076719	<s> á	-0.056615405
-1.1116086	dauðsföll á	-0.056615405
-1.6647943	sem á	-0.056615405
-0.7603304	snemma á	-0.056615405
-1.6232282	er á	-0.056615405
-1.1116086	klausturstofnun á	-0.056615405
-1.4767244	honum á	-0.056615405
-1.1116086	fyrirbæri á	-0.056615405
-1.3185618	fólk á	-0.056615405
-1.1116086	slökktu á	-0.056615405
-1.1116086	gen á	-0.056615405
-1.1116086	slökku á	-0.056615405
-1.3185618	lesefni á	-0.056615405
-1.1116086	sérstaklega á	-0.056615405
-1.5982465	eða á	-0.056615405
-1.1116086	hægja á	-0.056615405
-1.1116086	indíánar á	-0.056615405
-1.4324081	hér á	-0.0052297306
-1.1116086	litið á	-0.056615405
-1.3185618	alltaf á	-0.056615405
-1.1116086	skilgreininguna á	-0.056615405
-1.1116086	víða á	-0.056615405
-1.3185618	aftur á	-0.056615405
-1.5166664	sama á	-0.056615405
-1.1116086	gerst á	-0.056615405
-1.1116086	kveikjum á	-0.056615405
-1.1116086	hert á	-0.056615405
-1.1116086	laufblöð á	-0.056615405
-1.1116086	smellið á	-0.056615405
-1.1116086	finnst á	-0.056615405
-1.3185618	yfir á	-0.056615405
-1.1116086	athuganir á	-0.056615405
-1.1116086	kveiktu á	-0.056615405
-1.1116086	verka á	-0.056615405
-1.1116086	massa á	-0.056615405
-1.1116086	maraþonhlaupi á	-0.056615405
-2.6987734	á heimsvísu	-0.056615405
-2.4430609	<s> þeir	-0.056615405
-2.438731	að þeir	-0.056615405
-2.4427636	og þeir	-0.056615405
-1.9630772	þegar þeir	-0.056615405
-1.2136513	sigldu þeir	-0.056615405
-1.7195449	þeir sem	-0.056615405
-1.1679096	varaforsetinn sem	-0.056615405
-1.1679096	geirangursfirði sem	-0.056615405
-1.0591627	þar sem	-0.056615405
-1.5399058	eitt sem	-0.056615405
-1.1679096	lyktin sem	-0.056615405
-1.1679096	málverk sem	-0.056615405
-1.1679096	lyfjum sem	-0.056615405
-1.1679096	plöntur sem	-0.056615405
-1.1679096	matnum sem	-0.056615405
-1.1679096	fitu sem	-0.056615405
-1.1679096	styttra sem	-0.056615405
-1.1679096	dögum sem	-0.056615405
-1.1679096	dýrategundir sem	-0.056615405
-1.1679096	býflugum sem	-0.056615405
-1.1679096	sóknir sem	-0.056615405
-1.1679096	íslendingurinn sem	-0.056615405
-1.1679096	ljósi sem	-0.056615405
-2.4593768	sem tala	-0.056615405
-2.316853	um borgarfjörð	-0.056615405
-1.2251605	huga borgarfjörð	-0.056615405
-1.5249581	borgarfjörð eystra	-0.056615405
-2.0274885	<s> eru	-0.056615405
-1.8025596	því eru	-0.0052297306
-1.8600768	sem eru	-0.056615405
-1.1580045	eystra eru	-0.056615405
-1.7230418	hvað eru	-0.056615405
-1.592987	hans eru	-0.056615405
-1.4601922	það eru	-0.021691881
-1.7156641	þetta eru	-0.056615405
-1.1580045	setningarhlutar eru	-0.0052297306
-1.592987	þeirra eru	-0.0052297306
-1.1580045	risi eru	-0.056615405
-1.1580045	hundaæðis eru	-0.056615405
-1.1580045	kornvörur eru	-0.056615405
-1.1580045	svörtuloft eru	-0.056615405
-1.1580045	þau eru	-0.056615405
-1.1580045	lágfletir eru	-0.056615405
-1.1580045	háskólans eru	-0.056615405
-1.3959279	þannig eru	-0.056615405
-1.1580045	heimildir eru	-0.056615405
-1.1580045	hverfinu eru	-0.056615405
-1.1580045	nauðungarvinna eru	-0.056615405
-2.1483505	<s> með	-0.056615405
-2.034337	eru með	-0.056615405
-2.1269448	er með	-0.056615405
-1.1849372	rákir með	-0.056615405
-1.4436185	kom með	-0.056615405
-1.1849372	sofa með	-0.056615405
-1.1849372	trúarbrögð með	-0.056615405
-1.1849372	telst með	-0.056615405
-1.6706313	þó með	-0.056615405
-1.1849372	dó með	-0.056615405
-1.1849372	börnum með	-0.056615405
-1.1849372	reiknast með	-0.056615405
-1.1849372	bannaðar með	-0.056615405
-2.783237	í huga	-0.056615405
-2.1943188	fyrir austan	-0.056615405
-3.134571	<s> sýklalyf	-0.056615405
-2.4152267	sem gera	-0.056615405
-1.2251605	sýklalyf gera	-0.056615405
-1.5195868	gera lítið	-0.056615405
-1.2251605	afar lítið	-0.056615405
-1.5249581	lítið gagn	-0.056615405
-1.5116957	nema mjög	-0.056615405
-1.5116957	voru mjög	-0.056615405
-1.6775627	menn mjög	-0.056615405
-1.6891733	mjög snemma	-0.056615405
-1.2251605	þorskurinn snemma	-0.056615405
-2.6987734	á sjúkdómsferlinum	-0.056615405
-3.134571	<s> ótta	-0.056615405
-1.6937048	<s> hvað	-0.035326168
-2.1073132	fyrir hvað	-0.056615405
-2.2293122	um hvað	-0.056615405
-1.2173778	ótta hvað	-0.056615405
-1.7013648	<s> er	-0.056615405
-1.5483142	því er	-0.056615405
-1.4977992	ekki er	-0.056615405
-1.2779965	lítið er	-0.056615405
-1.1704621	hvað er	-0.056615405
-1.0859778	galli er	-0.056615405
-1.3298163	það er	-0.056615405
-1.4977992	þetta er	-0.056615405
-1.2779965	ísland er	-0.056615405
-1.534085	og er	-0.056615405
-1.0859778	goðafræði er	-0.056615405
-1.0859778	aðblástur er	-0.056615405
-1.0859778	alba er	-0.056615405
-1.2779965	þessu er	-0.056615405
-1.4194694	oft er	-0.056615405
-1.4194694	þeirra er	-0.056615405
-0.8983388	hér er	-0.056615405
-1.2779965	ítalíu er	-0.056615405
-1.4194694	jónsson er	-0.056615405
-1.0859778	kvarkar er	-0.056615405
-1.0859778	eðlilegt er	-0.056615405
-1.0859778	þumals er	-0.056615405
-1.0859778	járn er	-0.056615405
-1.0859778	brjóstkassa er	-0.056615405
-1.0859778	rófubeinið er	-0.056615405
-1.0859778	hitabreyting er	-0.056615405
-1.0859778	frostmarki er	-0.056615405
-1.0859778	áin er	-0.056615405
-1.0859778	kjarninn er	-0.056615405
-1.0859778	vikudagur er	-0.056615405
-1.0859778	táknmál er	-0.056615405
-1.0859778	hverju er	-0.056615405
-1.3670225	íslenska er	-0.056615405
-1.0859778	gígsins er	-0.056615405
-1.0859778	fyrirtækið er	-0.056615405
-1.2779965	uppruni er	-0.056615405
-1.0859778	færslan er	-0.056615405
-1.0859778	þjónað er	-0.056615405
-1.0859778	sauðárkrókur er	-0.056615405
-1.0859778	kynna er	-0.056615405
-1.0859778	dalsins er	-0.056615405
-1.0859778	lokið er	-0.056615405
-1.0859778	slíkur er	-0.056615405
-1.0859778	deildin er	-0.056615405
-1.0859778	starfsheitið er	-0.056615405
-2.7798643	er klukkan	-0.056615405
-3.134571	<s> klausturstofnun	-0.056615405
-2.076764	á þeim	-0.056615405
-1.5249581	þeim bæ	-0.056615405
-2.783237	í biskupstíð	-0.056615405
-1.2173778	biskupstíð hans	-0.056615405
-1.5043874	móður hans	-0.056615405
-1.2173778	yfirmenn hans	-0.056615405
-1.2173778	arftaki hans	-0.056615405
-1.7925124	hans varð	-0.056615405
-1.5116957	ísland varð	-0.056615405
-1.2211366	þátttökunni varð	-0.056615405
-1.6668966	varð honum	-0.056615405
-2.2313554	var honum	-0.056615405
-1.2173778	bjóða honum	-0.056615405
-1.2173778	jesús honum	-0.056615405
-1.8181928	honum áreiðanlega	-0.056615405
-1.227879	áreiðanlega gleðiefni	-0.056615405
-1.7642238	<s> en	-0.056615405
-1.2026598	fremur en	-0.056615405
-1.6266732	aðrar en	-0.056615405
-1.2026598	hvítblæði en	-0.0052297306
-1.2026598	þjóðarframleiðslu en	-0.056615405
-1.2026598	áður en	-0.056615405
-1.2026598	sólinni en	-0.056615405
-1.2026598	akademíunnar en	-0.056615405
-2.2312934	en sá	-0.056615405
-1.227879	sá galli	-0.056615405
-2.6987734	á dæminu	-0.056615405
-1.6325058	<s> það	-0.015031976
-1.9157001	að það	-0.0052297306
-2.0197883	um það	-0.056615405
-2.1516473	á það	-0.056615405
-2.0666451	sem það	-0.056615405
-2.0110135	með það	-0.056615405
-2.188481	er það	-0.056615405
-2.0233746	var það	-0.056615405
-1.456407	kom það	-0.056615405
-1.1919398	sýna það	-0.056615405
-1.1919398	fer það	-0.056615405
-2.049794	ekki raunverulegt	-0.056615405
-1.7031965	<s> þetta	-0.05661537
-2.2695918	um þetta	-0.056615405
-1.2211366	syngur þetta	-0.056615405
-2.049794	þetta tengist	-0.056615405
-2.134829	að ísland	-0.056615405
-2.1763177	er talið	-0.056615405
-2.117128	<s> til	-0.056615405
-1.9457926	eru til	-0.056615405
-1.4191189	talið til	-0.056615405
-1.6300762	fram til	-0.056615405
-1.6300762	séu til	-0.056615405
-1.5478429	gefur til	-0.056615405
-1.5478429	líka til	-0.056615405
-1.5478429	öðrum til	-0.056615405
-1.1712621	annað til	-0.056615405
-1.4191189	teljast til	-0.056615405
-1.1712621	feitletrað til	-0.056615405
-1.4191189	náð til	-0.056615405
-1.4191189	smátt til	-0.056615405
-1.1712621	myndina til	-0.056615405
-1.1712621	rann til	-0.056615405
-1.1712621	börnin til	-0.056615405
-1.1712621	tilbúinn til	-0.056615405
-2.38126	til evrópu	-0.056615405
-1.2251605	austur evrópu	-0.056615405
-2.3933048	<s> hann	-0.0052297306
-1.6463194	varð hann	-0.056615405
-2.1611288	var hann	-0.056615405
-1.2099565	heitir hann	-0.056615405
-1.2099565	gerði hann	-0.056615405
-1.2099565	senda hann	-0.056615405
-2.1990638	<s> var	-0.056615405
-1.6601319	hans var	-0.056615405
-1.769935	hann var	-0.056615405
-2.081401	og var	-0.056615405
-1.769935	þá var	-0.056615405
-1.1814779	árum var	-0.056615405
-1.1814779	borgarinnar var	-0.056615405
-1.1814779	loks var	-0.056615405
-1.6601319	þó var	-0.056615405
-1.1814779	albert var	-0.056615405
-1.1814779	síðan var	-0.056615405
-1.1814779	fjórir var	-0.056615405
-1.1814779	ólafur var	-0.056615405
-1.1814779	fornu var	-0.056615405
-1.9492894	hann fyrsti	-0.056615405
-1.6504222	var fyrsti	-0.056615405
-1.2211366	allraheilagramessa fyrsti	-0.056615405
-1.8181928	fyrsti varaforsetinn	-0.056615405
-2.4593768	sem bauð	-0.056615405
-1.2251605	bauð sig	-0.056615405
-1.2251605	sjálfstæðisflokkurinn sig	-0.0052297306
-1.5249581	sig aldrei	-0.056615405
-1.2173778	aldrei fram	-0.056615405
-1.5043874	daga fram	-0.0052297306
-1.5043874	komið fram	-0.056615405
-1.2173778	komu fram	-0.056615405
-2.4124691	til forseta	-0.056615405
-2.9809566	<s> hvaða	-0.056615405
-1.2251605	tindar hvaða	-0.056615405
-1.5249581	hvaða tilgangi	-0.056615405
-1.227879	tilgangi þjónar	-0.056615405
-1.227879	þjónar skjaldarmerkið	-0.056615405
-1.4462209	hann og	-0.056615405
-1.0723661	skjaldarmerkið og	-0.056615405
-0.30603042	eins og	-0.035326168
-1.2569969	orku og	-0.0052297306
-1.0723661	grískri og	-0.056615405
-1.0723661	kvenmannsnafn og	-0.056615405
-1.0723661	einkunn og	-0.0052297306
-1.0723661	níutíu og	-0.056615405
-1.0723661	nagdýra og	-0.0052297306
-1.0723661	stöðvuð og	-0.056615405
-1.0723661	bliksvefn og	-0.0052297306
-1.2569969	ítalíu og	-0.056615405
-1.0723661	keilum og	-0.056615405
-1.0723661	tröll og	-0.056615405
-1.0723661	brauð og	-0.056615405
-1.0723661	málmurinn og	-0.056615405
-1.0723661	brennanlegt og	-0.056615405
-1.0723661	alaska og	-0.056615405
-1.0723661	mælt og	-0.056615405
-1.2569969	þann og	-0.056615405
-1.2569969	manna og	-0.056615405
-1.0723661	efnafræðingar og	-0.056615405
-1.0723661	merkingu og	-0.056615405
-1.3413837	sér og	-0.056615405
-1.0723661	hríð og	-0.056615405
-1.0723661	fyrst og	-0.056615405
-1.0723661	yngvasonar og	-0.056615405
-1.0723661	gróa og	-0.056615405
-1.2569969	smátt og	-0.056615405
-1.0723661	róteindum og	-0.056615405
-1.0723661	norðurárdal og	-0.056615405
-1.0723661	fjörutíu og	-0.056615405
-1.0723661	yfirborðs og	-0.056615405
-1.0723661	prófastar og	-0.056615405
-1.0723661	fjarlægð og	-0.056615405
-1.0723661	áskirkja og	-0.056615405
-1.0723661	þekktum og	-0.056615405
-1.0723661	pyndingar og	-0.056615405
-1.0723661	geri og	-0.056615405
-1.0723661	kennitala og	-0.056615405
-1.0723661	vextir og	-0.056615405
-1.0723661	innstæðueigenda og	-0.056615405
-1.0723661	algengir og	-0.056615405
-1.0723661	útbreiddir og	-0.056615405
-1.0723661	búrfelli og	-0.056615405
-1.0723661	dauðann og	-0.056615405
-1.0723661	vegalengd og	-0.056615405
-1.0723661	fyrr og	-0.056615405
-1.0723661	starfið og	-0.056615405
-1.2569969	hækka og	-0.056615405
-2.0505803	hvað stendur	-0.056615405
-1.227879	stendur hvert	-0.056615405
-1.227879	hvert fyrirbæri	-0.056615405
-3.134571	<s> ætla	-0.056615405
-1.2099565	ætla má	-0.056615405
-1.2099565	tilfellum má	-0.056615405
-1.7522291	landi má	-0.056615405
-1.8309089	sama má	-0.056615405
-1.2099565	brennudóma má	-0.0052297306
-1.2099565	lagi má	-0.056615405
-2.7485497	að lyfjabirgðir	-0.056615405
-2.783237	í landinu	-0.056615405
-2.3079844	sem séu	-0.056615405
-1.2173778	landinu séu	-0.056615405
-1.2173778	fuglar séu	-0.056615405
-1.2173778	allir séu	-0.056615405
-2.2981272	það bil	-0.056615405
-2.549432	<s> eins	-0.056615405
-1.2099565	bil eins	-0.056615405
-1.2099565	næringarefnum eins	-0.0052297306
-1.2099565	mál eins	-0.056615405
-1.2099565	ritum eins	-0.056615405
-1.2099565	alveg eins	-0.056615405
-1.9974365	eins mánaðar	-0.056615405
-2.708987	<s> fitan	-0.0052297306
-2.5905638	og gefur	-0.056615405
-1.2211366	fitan gefur	-0.0052297306
-1.2211366	undirstöðusetning gefur	-0.056615405
-1.6891733	gefur okkur	-0.0052297306
-1.2251605	heldur okkur	-0.056615405
-1.5195868	okkur orku	-0.0052297306
-1.2251605	mikla orku	-0.056615405
-2.7838645	og dreifir	-0.0052297306
-1.227879	dreifir næringarefnum	-0.0052297306
-2.7838645	og a	-0.0052297306
-3.134571	<s> adeliemörgæsir	-0.056615405
-1.227879	adeliemörgæsir verpa	-0.056615405
-2.783237	í geysistórum	-0.056615405
-1.227879	geysistórum nýlendum	-0.056615405
-3.134571	<s> ef	-0.056615405
-1.227879	ef einhverjum	-0.056615405
-1.2211366	einhverjum hefur	-0.056615405
-1.2211366	síð hefur	-0.056615405
-1.2211366	vatn hefur	-0.056615405
-1.6668966	hefur verið	-0.056615405
-1.2173778	hafði verið	-0.056615405
-1.2173778	alvörunni verið	-0.056615405
-1.2173778	fremst verið	-0.056615405
-1.8181928	verið gefið	-0.056615405
-1.2251605	gefið nafn	-0.056615405
-1.2251605	eldra nafn	-0.056615405
-2.549432	<s> þá	-0.056615405
-2.0775886	en þá	-0.056615405
-2.1280484	það þá	-0.056615405
-1.6463194	hefur þá	-0.056615405
-1.4901294	nafn þá	-0.056615405
-1.2099565	hófu þá	-0.056615405
-1.9866261	þá heitir	-0.056615405
-2.2366986	því nafni	-0.056615405
-1.2251605	einu nafni	-0.0052297306
-3.134571	<s> áberandi	-0.056615405
-1.227879	áberandi rákir	-0.056615405
-2.3259952	með röð	-0.056615405
-1.227879	röð holupytta	-0.056615405
-1.5249581	liggja langs	-0.056615405
-2.3486676	<s> eftir	-0.0052297306
-1.8752296	þá eftir	-0.056615405
-1.2062929	langs eftir	-0.056615405
-1.4831722	þessu eftir	-0.056615405
-1.2062929	ragnarök eftir	-0.056615405
-1.2062929	mismikil eftir	-0.056615405
-1.2062929	pages eftir	-0.056615405
-2.049794	eftir skjaldvængjunum	-0.056615405
-2.783237	í grískri	-0.056615405
-2.7838645	og rómverskri	-0.056615405
-1.227879	rómverskri goðafræði	-0.056615405
-2.7798643	er persónugervingur	-0.056615405
-1.227879	persónugervingur tunglsins	-0.056615405
-1.227879	tunglsins selena	-0.056615405
-2.7106805	<s> nafnið	-0.056615405
-2.5189586	er nafnið	-0.056615405
-2.2313554	var nafnið	-0.056615405
-2.5104065	og nafnið	-0.056615405
-1.8181928	nafnið afganistan	-0.056615405
-1.227879	afganistan merkir	-0.056615405
-2.2654607	því land	-0.056615405
-1.227879	land afgana	-0.056615405
-3.134571	<s> aðblástur	-0.056615405
-2.5961823	er líka	-0.056615405
-1.2211366	geta líka	-0.056615405
-1.2211366	dönsku líka	-0.056615405
-2.783237	í gelísku	-0.056615405
-1.227879	gelísku mögulega	-0.056615405
-1.2173778	mögulega vegna	-0.056615405
-1.2173778	arkitektúr vegna	-0.056615405
-1.2173778	fjárfesta vegna	-0.056615405
-1.2173778	insúlínskorti vegna	-0.056615405
-1.8181928	vegna norræna	-0.056615405
-1.227879	norræna áhrifa	-0.056615405
-1.7868934	<s> þegar	-0.0052297306
-2.1012874	því þegar	-0.056615405
-1.4901294	orku þegar	-0.056615405
-1.2099565	vonar þegar	-0.056615405
-1.2099565	umdeildur þegar	-0.056615405
-1.2099565	þungir þegar	-0.056615405
-2.049794	þegar vorið	-0.0052297306
-2.4152267	sem gengur	-0.056615405
-1.2251605	vorið gengur	-0.0052297306
-2.783237	í garð	-0.0052297306
-3.134571	<s> notaði	-0.056615405
-2.695728	og fólk	-0.056615405
-1.2251605	notaði fólk	-0.056615405
-1.5249581	fólk tannbursta	-0.056615405
-2.783237	í gamla	-0.056615405
-1.2251605	gamla daga	-0.056615405
-1.2251605	marga daga	-0.0052297306
-3.134571	<s> geirangur	-0.056615405
-1.227879	geirangur liggur	-0.056615405
-2.783237	í geirangursfirði	-0.056615405
-1.5249581	gengur inn	-0.056615405
-1.2136513	inn úr	-0.056615405
-1.4971998	út úr	-0.056615405
-1.2136513	samsettur úr	-0.056615405
-1.2136513	pylsuendanum úr	-0.056615405
-1.2136513	byggður úr	-0.056615405
-1.9112569	úr stórfirði	-0.056615405
-3.134571	<s> eignirnar	-0.056615405
-1.9712539	þeir voru	-0.056615405
-1.2251605	eignirnar voru	-0.056615405
-2.0730553	er af	-0.056615405
-1.8838717	en af	-0.0052297306
-1.431196	sig af	-0.0052297306
-1.431196	voru af	-0.056615405
-0.7856261	stafar af	-0.056615405
-1.178046	gerðir af	-0.056615405
-1.178046	ríkar af	-0.056615405
-1.178046	hluti af	-0.056615405
-1.178046	vísindavefnum af	-0.056615405
-1.178046	annars af	-0.056615405
-1.178046	eintak af	-0.056615405
-1.178046	prósent af	-0.056615405
-1.178046	sýking af	-0.056615405
-1.178046	mótað af	-0.056615405
-1.178046	rekin af	-0.056615405
-2.3762085	af ýmsu	-0.056615405
-1.227879	ýmsu tagi	-0.056615405
-3.134571	<s> alba	-0.056615405
-2.7798643	er íslenskt	-0.056615405
-1.227879	íslenskt kvenmannsnafn	-0.056615405
-2.7838645	og þýðir	-0.056615405
-1.2251605	þýðir hin	-0.056615405
-1.5195868	undir hin	-0.056615405
-1.5249581	hin hvíta	-0.056615405
-2.708987	<s> aðrir	-0.0052297306
-1.227879	aðrir setningarhlutar	-0.0052297306
-2.5100462	eru sagnfylling	-0.0052297306
-1.227879	sagnfylling andlag	-0.0052297306
-1.227879	andlag einkunn	-0.0052297306
-2.7838645	og viðlag	-0.0052297306
-3.134571	<s> snælaugur	-0.056615405
-1.227879	snælaugur slökktu	-0.056615405
-2.670724	að þessu	-0.056615405
-2.62551	á þessu	-0.056615405
-2.049794	eftir níutíu	-0.056615405
-2.7838645	og fimm	-0.056615405
-1.227879	fimm mínútur	-0.056615405
-2.9809566	<s> margar	-0.056615405
-2.38126	til margar	-0.056615405
-1.5249581	margar orsakir	-0.056615405
-1.227879	orsakir lágu	-0.056615405
-2.499264	<s> þar	-0.0052297306
-1.2173778	lágu þar	-0.056615405
-1.2173778	móbergi þar	-0.056615405
-1.2173778	ólst þar	-0.056615405
-2.134829	að baki	-0.056615405
-3.134571	<s> hvaðan	-0.056615405
-1.2251605	hvaðan kom	-0.056615405
-1.2251605	toshizo kom	-0.056615405
-2.1943188	fyrir nokkrum	-0.056615405
-1.227879	nokkrum árum	-0.056615405
-2.3524196	var staðfest	-0.056615405
-2.7798643	er einungis	-0.056615405
-2.2269733	það eitt	-0.056615405
-1.2211366	einungis eitt	-0.056615405
-1.2211366	eitthvað eitt	-0.056615405
-1.6971343	eitt gen	-0.056615405
-2.6987734	á y	-0.056615405
-1.227879	y litningnum	-0.056615405
-3.134571	<s> sumum	-0.056615405
-1.227879	sumum þykir	-0.056615405
-1.227879	þykir hjálpa	-0.056615405
-2.7485497	að sofa	-0.056615405
-2.3259952	með hærra	-0.056615405
-1.2251605	hærra undir	-0.056615405
-1.2251605	taka undir	-0.056615405
-1.5249581	undir höfði	-0.056615405
-2.708987	<s> magnús	-0.056615405
-1.5249581	magnús sigurðson	-0.056615405
-1.227879	sigurðson dat	-0.056615405
-2.2981272	það sigldu	-0.056615405
-2.783237	í burtu	-0.056615405
-3.134571	<s> lyktin	-0.056615405
-2.4593768	sem fylgir	-0.056615405
-2.563837	<s> oft	-0.056615405
-1.2211366	fylgir oft	-0.056615405
-1.5116957	einnig oft	-0.056615405
-1.8181928	oft vindgangi	-0.056615405
-1.2251605	vindgangi stafar	-0.056615405
-1.8077033	hún stafar	-0.056615405
-2.3762085	af breinnisteinssamböndum	-0.056615405
-2.6448026	<s> meðal	-0.0052297306
-1.2251605	útskýrist meðal	-0.056615405
-1.5043874	meðal þeirra	-0.0052297306
-1.2173778	tilvist þeirra	-0.056615405
-1.2173778	ljósgleypni þeirra	-0.056615405
-1.2173778	form þeirra	-0.056615405
-2.5100462	eru átta	-0.0052297306
-1.2211366	átta tegundir	-0.0052297306
-1.2211366	fjórar tegundir	-0.0052297306
-1.5116957	tvær tegundir	-0.0052297306
-1.6971343	tegundir leðurblakna	-0.0052297306
-1.227879	leðurblakna fjórar	-0.0052297306
-1.6971343	tegundir nagdýra	-0.0052297306
-2.695728	og tvær	-0.0052297306
-2.0320637	hafa tvær	-0.056615405
-1.6971343	tegundir skordýraætna	-0.0052297306
-3.134571	<s> jagger	-0.056615405
-1.227879	jagger slökku	-0.056615405
-2.6987734	á niðurteljaranum	-0.056615405
-3.134571	<s> málverk	-0.056615405
-2.4593768	sem sýnir	-0.056615405
-1.227879	sýnir ragnarök	-0.056615405
-2.049794	eftir emil	-0.056615405
-1.227879	emil doepler	-0.056615405
-2.708987	<s> frekara	-0.0052297306
-1.227879	frekara lesefni	-0.056615405
-2.3001387	<s> við	-0.056615405
-2.1516473	á við	-0.056615405
-1.853197	þegar við	-0.056615405
-1.456407	lesefni við	-0.056615405
-1.1919398	nánd við	-0.056615405
-1.1919398	sambandi við	-0.056615405
-1.1919398	berum við	-0.056615405
-1.1919398	fundist við	-0.056615405
-1.1919398	tengsl við	-0.056615405
-1.1919398	foreldranna við	-0.056615405
-1.1919398	aðstoð við	-0.056615405
-2.2654607	við bendum	-0.056615405
-1.227879	bendum sérstaklega	-0.056615405
-2.6987734	á bók	-0.056615405
-1.227879	bók einsteins	-0.056615405
-1.227879	einsteins sjálfs	-0.056615405
-1.227879	sjálfs afstæðiskenningin	-0.056615405
-3.134571	<s> sókn	-0.056615405
-1.2251605	sókn japana	-0.056615405
-1.2251605	nýárshátíð japana	-0.056615405
-1.5249581	japana hafði	-0.056615405
-1.8181928	verið stöðvuð	-0.056615405
-1.9866261	þeir beðið	-0.056615405
-1.227879	beðið hroðalegan	-0.056615405
-1.227879	hroðalegan ósigur	-0.056615405
-2.5956645	í öðrum	-0.056615405
-2.2492836	með öðrum	-0.056615405
-2.5905638	og öðrum	-0.056615405
-1.6971343	öðrum tilfellum	-0.056615405
-1.9866261	má beita	-0.056615405
-1.227879	beita lyfjum	-0.056615405
-2.4593768	sem hraða	-0.056615405
-2.2557366	í eða	-0.056615405
-1.199057	hraða eða	-0.056615405
-1.199057	sápu eða	-0.056615405
-1.4695834	svefn eða	-0.0052297306
-1.199057	sníkjudýr eða	-0.056615405
-1.199057	lopanna eða	-0.056615405
-1.199057	bunga eða	-0.056615405
-1.199057	bjagast eða	-0.056615405
-1.199057	ein eða	-0.056615405
-2.1514778	eða hægja	-0.056615405
-2.6987734	á hjartslætti	-0.056615405
-3.134571	<s> konur	-0.056615405
-1.227879	konur ættu	-0.056615405
-2.7485497	að forðast	-0.056615405
-1.3789396	að nota	-0.056615405
-1.2251605	röksemdina nota	-0.056615405
-1.8181928	nota sápu	-0.056615405
-2.1514778	eða annað	-0.056615405
-2.7485497	að herða	-0.056615405
-1.227879	herða vörturnar	-0.056615405
-3.134571	<s> plöntur	-0.056615405
-2.7485497	að fullu	-0.056615405
-1.227879	fullu ferlitna	-0.056615405
-1.227879	ferlitna geta	-0.056615405
-1.6891733	líka komið	-0.056615405
-1.8077033	þó komið	-0.056615405
-3.134571	<s> svanir	-0.056615405
-2.0333376	hvað teljast	-0.056615405
-1.2251605	svanir teljast	-0.056615405
-2.4124691	til andaættarinnar	-0.056615405
-2.049794	ekki eitthvað	-0.056615405
-1.6891733	eitt efni	-0.056615405
-1.2251605	ekkert efni	-0.056615405
-2.783237	í matnum	-0.056615405
-2.4593768	sem heldur	-0.056615405
-1.5249581	okkur lifandi	-0.056615405
-1.5116957	þeim tíma	-0.056615405
-1.5116957	þann tíma	-0.056615405
-1.8796579	sama tíma	-0.056615405
-1.6971343	tíma stækkaði	-0.056615405
-1.227879	stækkaði borgin	-0.056615405
-1.227879	borgin mikið	-0.056615405
-3.134571	<s> inkar	-0.056615405
-1.227879	inkar kölluðust	-0.056615405
-1.227879	kölluðust indíánar	-0.056615405
-2.6987734	á meginlandi	-0.056615405
-1.227879	meginlandi suður	-0.056615405
-1.227879	suður ameríku	-0.056615405
-2.00999	<s> hér	-0.021691881
-2.2046423	en hér	-0.056615405
-2.7798643	er innrímið	-0.056615405
-1.227879	innrímið feitletrað	-0.056615405
-2.7485497	að sýna	-0.056615405
-2.2981272	það skýrt	-0.056615405
-2.708987	<s> rem	-0.0052297306
-1.2251605	rem svefn	-0.0052297306
-1.2251605	nrem svefn	-0.0052297306
-2.1514778	eða bliksvefn	-0.0052297306
-2.7838645	og nrem	-0.0052297306
-3.134571	<s> forseti	-0.056615405
-1.2251605	forseti ítalíu	-0.056615405
-1.2251605	þjóðhöfðingi ítalíu	-0.056615405
-2.7798643	er þjóðhöfðingi	-0.056615405
-2.7838645	og fulltrúi	-0.056615405
-1.227879	fulltrúi einingar	-0.056615405
-1.227879	einingar þjóðarinnar	-0.056615405
-2.9809566	<s> samkvæmt	-0.056615405
-1.2251605	þjóðarinnar samkvæmt	-0.056615405
-1.5249581	samkvæmt stjórnarskránni	-0.056615405
-2.708987	<s> sumir	-0.056615405
-1.5249581	sumir íþróttamenn	-0.056615405
-1.227879	íþróttamenn kjósa	-0.056615405
-1.8181928	nota fitu	-0.056615405
-2.4593768	sem meginorkugjafa	-0.056615405
-1.227879	meginorkugjafa fremur	-0.056615405
-2.2312934	en kolvetni	-0.056615405
-2.5100462	eru tveir	-0.0052297306
-1.2211366	tveir menn	-0.0052297306
-2.006892	hafa menn	-0.056615405
-1.2211366	angraði menn	-0.056615405
-1.496095	fyrir framan	-0.021691881
-1.8077033	nota sitt	-0.056615405
-1.5195868	framan sitt	-0.0052297306
-0.80305326	sitt hvora	-0.021691881
-2.2312934	en skyldi	-0.056615405
-2.670724	að vera	-0.056615405
-1.2251605	skyldi vera	-0.056615405
-1.5249581	vera hægt	-0.056615405
-2.7485497	að afsanna	-0.056615405
-1.227879	afsanna trúarbrögð	-0.056615405
-2.3259952	með aðferðum	-0.056615405
-1.227879	aðferðum vísindanna	-0.056615405
-3.134571	<s> anita	-0.056615405
-1.227879	anita kyn	-0.056615405
-1.5043874	magnús jónsson	-0.056615405
-1.2173778	kyn jónsson	-0.056615405
-1.2173778	ari jónsson	-0.056615405
-1.2173778	árni jónsson	-0.056615405
-2.7798643	er skráð	-0.056615405
-2.1943188	fyrir íslenskri	-0.056615405
-1.227879	íslenskri þýðingu	-0.056615405
-3.134571	<s> eldra	-0.056615405
-1.5249581	nafn borgarinnar	-0.056615405
-2.3524196	var pýþó	-0.056615405
-2.5100462	eru kvarkar	-0.056615405
-2.7798643	er tilvist	-0.056615405
-1.8181928	þeirra sönnuð	-0.056615405
-3.134571	<s> eðlilegt	-0.056615405
-2.783237	í slíku	-0.056615405
-2.535054	á landi	-0.056615405
-1.8796579	úr landi	-0.056615405
-1.2211366	slíku landi	-0.056615405
-1.8077033	landi sé	-0.056615405
-1.2251605	stjörnuþoka sé	-0.056615405
-1.5249581	sé litið	-0.056615405
-2.6987734	á jólin	-0.056615405
-3.134571	<s> hundar	-0.056615405
-1.2062929	hundar hafa	-0.056615405
-1.2062929	alda hafa	-0.056615405
-1.2062929	samkynhneigðir hafa	-0.056615405
-1.2062929	deilur hafa	-0.056615405
-1.2062929	forngripir hafa	-0.056615405
-1.4831722	heilalömun hafa	-0.056615405
-1.2062929	hrauntungur hafa	-0.056615405
-1.5249581	tvær gerðir	-0.056615405
-2.3762085	af keilum	-0.056615405
-2.7838645	og ljósgleypni	-0.056615405
-2.5956645	í tveimur	-0.056615405
-2.535054	á tveimur	-0.056615405
-2.2492836	með tveimur	-0.056615405
-1.6971343	tveimur bylgjulengdum	-0.056615405
-3.134571	<s> hugtökin	-0.056615405
-1.227879	hugtökin jötunn	-0.056615405
-1.227879	jötunn tröll	-0.056615405
-2.7838645	og risi	-0.056615405
-2.5100462	eru nátengd	-0.056615405
-3.134571	<s> fyrstu	-0.056615405
-1.2251605	fyrstu einkenni	-0.056615405
-1.2251605	sérstakt einkenni	-0.056615405
-1.5249581	einkenni hundaæðis	-0.056615405
-2.5100462	eru höfuðverkur	-0.056615405
-2.821267	<s> fyrsta	-0.056615405
-2.5956645	í fyrsta	-0.056615405
-2.289792	af fyrsta	-0.0052297306
-1.6971343	fyrsta miðhandarbein	-0.056615405
-1.227879	miðhandarbein þumals	-0.056615405
-2.6966193	er einnig	-0.056615405
-1.2251605	lærði einnig	-0.056615405
-1.8181928	oft styttra	-0.056615405
-2.4593768	sem gerir	-0.056615405
-1.227879	gerir þumalinn	-0.056615405
-1.2251605	þumalinn minni	-0.056615405
-1.2251605	doktorsritgerð minni	-0.0052297306
-2.5100462	eru einhver	-0.056615405
-1.227879	einhver sníkjudýr	-0.056615405
-2.5905638	og aðrar	-0.056615405
-2.09793	eða aðrar	-0.056615405
-1.2211366	líkamanum aðrar	-0.056615405
-1.6971343	aðrar lífverur	-0.056615405
-2.6987734	á líkamanum	-0.056615405
-2.2312934	en rykmaurar	-0.056615405
-3.134571	<s> kartöflur	-0.056615405
-1.227879	kartöflur hrísgrjón	-0.056615405
-1.227879	hrísgrjón pasta	-0.056615405
-1.227879	pasta brauð	-0.056615405
-1.6971343	aðrar kornvörur	-0.056615405
-2.5100462	eru ríkar	-0.056615405
-2.3762085	af mjölva	-0.056615405
-3.134571	<s> járn	-0.056615405
-2.7798643	er algengasti	-0.056615405
-1.227879	algengasti málmurinn	-0.056615405
-1.5249581	talið tíunda	-0.056615405
-1.227879	tíunda algengasta	-0.056615405
-1.227879	algengasta frumefnið	-0.056615405
-2.783237	í alheiminum	-0.056615405
-3.134571	<s> ný	-0.056615405
-1.2251605	ný kjarnorkuver	-0.056615405
-1.2251605	nefna kjarnorkuver	-0.056615405
-1.5249581	kjarnorkuver eiga	-0.056615405
-1.5249581	vera örugg	-0.056615405
-3.134571	<s> þekktustu	-0.056615405
-1.227879	þekktustu svörtuloft	-0.056615405
-2.5100462	eru sjávarhamrar	-0.056615405
-2.7798643	er brennanlegt	-0.056615405
-1.6971343	gefur mikla	-0.056615405
-2.7798643	er brennt	-0.056615405
-2.9809566	<s> dæmi	-0.056615405
-2.460732	eru dæmi	-0.056615405
-2.7798643	er guðshugmynd	-0.056615405
-1.227879	guðshugmynd aristótelesar	-0.056615405
-2.049794	þetta ferskvatnsflæði	-0.056615405
-1.227879	ferskvatnsflæði skapaði	-0.056615405
-1.227879	skapaði gróðurvinina	-0.056615405
-1.5249581	framan hraunið	-0.056615405
-3.134571	<s> litla	-0.056615405
-1.227879	litla eyjan	-0.056615405
-1.227879	eyjan tilheyrir	-0.056615405
-1.227879	tilheyrir alaska	-0.056615405
-2.2654607	því hluti	-0.056615405
-2.3762085	af bandaríkjunum	-0.056615405
-2.708987	<s> slík	-0.0052297306
-1.227879	slík mein	-0.0052297306
-1.227879	mein heita	-0.0052297306
-1.227879	heita einu	-0.0052297306
-1.5249581	nafni hvítblæði	-0.0052297306
-2.3431172	eru svo	-0.0052297306
-2.5189586	er svo	-0.056615405
-1.2173778	erla svo	-0.056615405
-1.2173778	bætist svo	-0.056615405
-1.8077033	svo nokkrar	-0.0052297306
-1.2251605	sækja nokkrar	-0.056615405
-1.5249581	nokkrar undirtegundir	-0.0052297306
-3.134571	<s> hugmyndinni	-0.056615405
-1.5249581	baki sýningunni	-0.056615405
-1.227879	sýningunni lýsir	-0.056615405
-1.227879	lýsir erla	-0.056615405
-3.134571	<s> mesta	-0.056615405
-1.227879	mesta ummál	-0.056615405
-1.227879	ummál brjóstkassa	-0.056615405
-2.7798643	er mælt	-0.056615405
-2.7838645	og þan	-0.056615405
-1.227879	þan brjóstkassans	-0.056615405
-1.227879	brjóstkassans metið	-0.056615405
-2.708987	<s> mynd	-0.056615405
-1.5249581	mynd aurora	-0.056615405
-1.227879	aurora borealis	-0.056615405
-2.2981272	það telst	-0.056615405
-2.783237	í þjóðarframleiðslu	-0.056615405
-2.049794	ekki landsframleiðslu	-0.056615405
-2.7485497	að fylla	-0.056615405
-1.227879	fylla sarpinn	-0.056615405
-1.227879	sarpinn þurfa	-0.056615405
-1.227879	þurfa býflugurnar	-0.056615405
-2.7485497	að heimsækja	-0.056615405
-1.227879	heimsækja fjölmörg	-0.056615405
-1.227879	fjölmörg blóm	-0.056615405
-2.9809566	<s> þann	-0.056615405
-2.2366986	við þann	-0.056615405
-2.7838645	og sautjánda	-0.056615405
-1.8077033	fyrsti nóvember	-0.056615405
-1.2251605	sautjánda nóvember	-0.056615405
-2.0505803	hvað gerði	-0.056615405
-1.9866261	hann skyldur	-0.056615405
-1.227879	skyldur snorra	-0.056615405
-1.227879	snorra sturlusyni	-0.056615405
-3.134571	<s> rófubeinið	-0.056615405
-2.7798643	er raunar	-0.056615405
-1.227879	raunar sérstakt	-0.056615405
-1.5195868	einkenni manna	-0.056615405
-1.2251605	langlífi manna	-0.056615405
-2.695728	og apa	-0.056615405
-1.2251605	þróun apa	-0.056615405
-2.4593768	sem hitabreyting	-0.056615405
-2.6966193	er alltaf	-0.056615405
-1.2251605	móti alltaf	-0.056615405
-2.7485497	að minnsta	-0.056615405
-1.227879	minnsta kosti	-0.056615405
-1.8077033	jónsson tvö	-0.056615405
-1.2251605	kosti tvö	-0.056615405
-1.5195868	tvö stig	-0.056615405
-1.5195868	fær stig	-0.056615405
-3.134571	<s> hófu	-0.056615405
-1.9866261	þá efnafræðingar	-0.056615405
-2.7838645	og eðlisfræðingar	-0.056615405
-1.5249581	hvora skilgreininguna	-0.056615405
-2.6987734	á atómmassaeiningunni	-0.056615405
-3.134571	<s> síð	-0.056615405
-1.9866261	þá svipaða	-0.056615405
-1.227879	svipaða merkingu	-0.056615405
-2.783237	í síðdegi	-0.056615405
-3.134571	<s> loks	-0.056615405
-2.3524196	var allraheilagramessa	-0.056615405
-2.783237	í nánd	-0.056615405
-2.2654607	við vetrarkomu	-0.056615405
-3.134571	<s> svipaðar	-0.056615405
-1.227879	svipaðar hefðir	-0.056615405
-1.227879	hefðir fyrirfinnast	-0.056615405
-1.227879	fyrirfinnast víða	-0.056615405
-2.6987734	á bretlandseyjum	-0.056615405
-2.7106805	<s> þó	-0.056615405
-2.1355393	en þó	-0.056615405
-1.9844322	hafa þó	-0.056615405
-1.2173778	bretlandseyjum þó	-0.056615405
-2.3259952	með svæðisbundnum	-0.056615405
-1.227879	svæðisbundnum áherslum	-0.056615405
-1.8181928	oft sjást	-0.056615405
-1.227879	sjást ljósleit	-0.056615405
-1.227879	ljósleit skýjadeili	-0.056615405
-1.227879	skýjadeili milli	-0.056615405
-1.227879	milli lopanna	-0.056615405
-2.1514778	eða blár	-0.056615405
-1.227879	blár himinn	-0.056615405
-2.7106805	<s> frá	-0.056615405
-1.5043874	út frá	-0.056615405
-1.2173778	flestar frá	-0.056615405
-1.2173778	runnið frá	-0.056615405
-1.8181928	frá örófi	-0.056615405
-1.227879	örófi alda	-0.056615405
-1.6971343	menn leikið	-0.056615405
-1.227879	leikið leiki	-0.056615405
-1.5116957	gera sér	-0.056615405
-1.2211366	leiki sér	-0.056615405
-1.2211366	atvinnumarkaði sér	-0.056615405
-2.4124691	til skemmtunar	-0.056615405
-3.134571	<s> albert	-0.056615405
-1.8181928	fyrsti íslenski	-0.056615405
-1.227879	íslenski atvinnumaðurinn	-0.056615405
-2.783237	í knattspyrnu	-0.056615405
-2.9809566	<s> þessi	-0.056615405
-1.2251605	kallast þessi	-0.056615405
-1.5249581	þessi klukka	-0.056615405
-1.227879	klukka hringdi	-0.056615405
-1.2251605	hringdi aftur	-0.056615405
-1.2251605	fæðunni aftur	-0.056615405
-2.6987734	á móti	-0.056615405
-2.563837	<s> sama	-0.056615405
-2.031704	á sama	-0.056615405
-2.289792	af sama	-0.056615405
-3.134571	<s> bensínið	-0.056615405
-1.227879	bensínið byrjar	-0.056615405
-2.0320637	hafa hins	-0.056615405
-1.2251605	byrjar hins	-0.056615405
-0.80305326	hins vegar	-0.056615405
-2.7485497	að hlaupa	-0.056615405
-2.783237	í kekki	-0.056615405
-1.227879	kekki áður	-0.056615405
-2.2312934	en frostmarki	-0.056615405
-2.6966193	er náð	-0.056615405
-1.2251605	allar náð	-0.056615405
-3.134571	<s> þau	-0.056615405
-2.5100462	eru oftast	-0.056615405
-1.227879	oftast disklaga	-0.056615405
-1.5249581	mynd golden	-0.056615405
-1.227879	golden ratio	-0.056615405
-2.3524196	var hertogi	-0.056615405
-2.783237	í skamma	-0.056615405
-1.227879	skamma hríð	-0.056615405
-2.7838645	og dó	-0.056615405
-2.3259952	með dularfullum	-0.056615405
-1.227879	dularfullum hætti	-0.056615405
-2.783237	í alvörunni	-0.056615405
-2.7485497	að bjóða	-0.056615405
-2.134829	að verða	-0.056615405
-1.5249581	verða jólasveinn	-0.056615405
-3.134571	<s> gráleitar	-0.056615405
-1.227879	gráleitar útfellingar	-0.056615405
-2.783237	í móbergi	-0.056615405
-2.4593768	sem vatn	-0.056615405
-1.6971343	hefur leyst	-0.056615405
-1.2251605	leyst út	-0.056615405
-1.2251605	skilgreindir út	-0.056615405
-1.9112569	úr berginu	-0.056615405
-3.134571	<s> samkynhneigðir	-0.056615405
-1.5249581	vegar fyrst	-0.056615405
-2.7838645	og fremst	-0.056615405
-1.8181928	verið skilgreindir	-0.056615405
-1.8181928	frá kynhneigð	-0.056615405
-1.227879	kynhneigð sinni	-0.056615405
-2.049794	þetta getur	-0.056615405
-1.227879	getur gerst	-0.056615405
-2.6987734	á klukkutíma	-0.056615405
-3.134571	<s> áin	-0.056615405
-2.1834843	í eigu	-0.056615405
-1.5249581	eigu óttars	-0.056615405
-1.227879	óttars yngvasonar	-0.056615405
-2.7838645	og einars	-0.056615405
-1.227879	einars sigfússonar	-0.056615405
-3.134571	<s> lillian	-0.056615405
-1.227879	lillian hver	-0.056615405
-1.227879	hver syngur	-0.056615405
-2.0320637	þetta lag	-0.056615405
-1.2251605	spilaðu lag	-0.056615405
-3.134571	<s> síðan	-0.056615405
-1.8181928	honum boðið	-0.056615405
-1.227879	boðið hlutverk	-0.056615405
-2.69802	í sjö	-0.056615405
-2.316853	um sjö	-0.056615405
-1.5249581	sjö dögum	-0.056615405
-2.4593768	sem leikari	-0.056615405
-2.563837	<s> hún	-0.056615405
-2.575649	að hún	-0.056615405
-1.2211366	innihélt hún	-0.056615405
-1.8181928	hún lærði	-0.056615405
-2.3516843	um spírun	-0.056615405
-1.227879	spírun gróa	-0.056615405
-2.7838645	og lífsferil	-0.056615405
-1.227879	lífsferil sveppa	-0.056615405
-2.5100462	eru héruðin	-0.056615405
-1.227879	héruðin álava	-0.056615405
-3.134571	<s> vilhjálmur	-0.056615405
-1.227879	vilhjálmur neyddist	-0.056615405
-2.695728	og smátt	-0.056615405
-1.2251605	neyddist smátt	-0.056615405
-2.7485497	að taka	-0.056615405
-1.5249581	hin róttækari	-0.056615405
-1.227879	róttækari sjónarmið	-0.056615405
-1.227879	sjónarmið kalvínista	-0.056615405
-1.5116957	margar mismunandi	-0.056615405
-2.1970508	við mismunandi	-0.056615405
-1.2211366	ýmis mismunandi	-0.056615405
-1.6971343	mismunandi tölvur	-0.056615405
-1.4350241	í dag	0
-3.134571	<s> miklar	-0.056615405
-1.227879	miklar deilur	-0.056615405
-1.7945789	þar upp	-0.056615405
-1.5116957	komið upp	-0.056615405
-1.5116957	aftur upp	-0.056615405
-2.783237	í sambandi	-0.056615405
-2.2654607	við langlífi	-0.056615405
-3.134571	<s> kjarninn	-0.056615405
-1.8181928	svo samsettur	-0.056615405
-1.9112569	úr jákvætt	-0.056615405
-1.227879	jákvætt hlöðnum	-0.056615405
-1.227879	hlöðnum róteindum	-0.056615405
-2.7838645	og óhlöðnum	-0.056615405
-1.227879	óhlöðnum nifteindum	-0.056615405
-3.134571	<s> einar	-0.056615405
-1.227879	einar þorsteinsson	-0.056615405
-1.227879	þorsteinsson fæddist	-0.056615405
-2.783237	í hvammi	-0.056615405
-2.783237	í norðurárdal	-0.056615405
-2.7838645	og ólst	-0.056615405
-3.134571	<s> lágfletir	-0.056615405
-2.5100462	eru stundum	-0.056615405
-1.227879	stundum notaðir	-0.056615405
-2.783237	í arkitektúr	-0.056615405
-1.7925124	vegna þess	-0.056615405
-1.2211366	heiti þess	-0.056615405
-1.2211366	krefst þess	-0.056615405
-1.9866261	þeir þykja	-0.056615405
-1.227879	þykja fallegir	-0.056615405
-2.2654607	við kveikjum	-0.056615405
-2.6987734	á kerti	-0.056615405
-1.227879	kerti berum	-0.056615405
-2.2654607	við eld	-0.056615405
-2.7485497	að kveiknum	-0.056615405
-3.134571	<s> afar	-0.056615405
-2.7798643	er vitað	-0.056615405
-2.3516843	um vistfræði	-0.056615405
-1.227879	vistfræði þessara	-0.056615405
-1.2251605	þessara tegunda	-0.056615405
-1.2251605	fjölda tegunda	-0.056615405
-3.134571	<s> tindar	-0.056615405
-1.5249581	hvaða vikudagur	-0.056615405
-2.0505803	hvað geturðu	-0.056615405
-1.227879	geturðu sagt	-0.056615405
-1.227879	sagt mér	-0.056615405
-2.3516843	um þróun	-0.056615405
-1.9866261	má segja	-0.056615405
-2.3516843	um hinn	-0.056615405
-1.227879	hinn lútherska	-0.056615405
-1.227879	lútherska söfnuð	-0.056615405
-3.134571	<s> næst	-0.056615405
-1.227879	næst ælir	-0.056615405
-1.227879	ælir dýrið	-0.056615405
-1.227879	dýrið fæðunni	-0.056615405
-1.6971343	upp munn	-0.056615405
-2.783237	í smá	-0.056615405
-1.227879	smá skömmtum	-0.056615405
-3.134571	<s> margir	-0.056615405
-1.227879	margir telja	-0.056615405
-2.7485497	að fuglar	-0.056615405
-1.8077033	séu þær	-0.056615405
-1.2251605	fá þær	-0.056615405
-1.5249581	þær núlifandi	-0.056615405
-1.227879	núlifandi dýrategundir	-0.056615405
-1.8181928	séu skyldastar	-0.056615405
-1.227879	skyldastar risaeðlum	-0.056615405
-3.134571	<s> ýmsir	-0.056615405
-1.227879	ýmsir athyglisverðir	-0.056615405
-1.227879	athyglisverðir forngripir	-0.056615405
-2.049794	hafa fundist	-0.056615405
-2.2654607	við þessar	-0.056615405
-1.227879	þessar rannsóknir	-0.056615405
-2.2695918	um þessa	-0.0052297306
-1.2211366	styðja þessa	-0.056615405
-1.2211366	gerð þessa	-0.056615405
-1.6971343	þessa brennudóma	-0.0052297306
-1.9866261	má lesa	-0.0052297306
-2.783237	í doktorsritgerð	-0.0052297306
-2.783237	í söfnum	-0.056615405
-1.227879	söfnum orðabókar	-0.056615405
-1.227879	orðabókar háskólans	-0.056615405
-2.3516843	um orðasambandið	-0.056615405
-1.227879	orðasambandið rúsínan	-0.056615405
-2.783237	í pylsuendanum	-0.056615405
-1.9112569	úr nútímamáli	-0.056615405
-1.6971343	varð sjálfstætt	-0.056615405
-1.227879	sjálfstætt ríki	-0.056615405
-1.227879	ríki árið	-0.056615405
-1.227879	árið nítján	-0.056615405
-1.227879	nítján hundrað	-0.056615405
-1.227879	hundrað fjörutíu	-0.056615405
-2.7838645	og fjórir	-0.056615405
-2.3524196	var enn	-0.056615405
-1.227879	enn hert	-0.056615405
-2.6987734	á kröfugerð	-0.056615405
-3.134571	<s> táknmál	-0.056615405
-2.7798643	er alvöru	-0.056615405
-1.227879	alvöru mál	-0.056615405
-2.695728	og önnur	-0.056615405
-1.2251605	öll önnur	-0.0052297306
-1.5249581	önnur tungumál	-0.056615405
-2.6987734	á vísindavefnum	-0.056615405
-2.3762085	af hverju	-0.056615405
-1.8181928	nafnið jónsmessa	-0.056615405
-1.227879	jónsmessa dregið	-0.056615405
-1.8982977	sama stað	-0.056615405
-1.2251605	tilteknum stað	-0.056615405
-3.134571	<s> lirfur	-0.056615405
-1.227879	lirfur éta	-0.056615405
-1.227879	éta laufblöð	-0.056615405
-2.6987734	á ýmsum	-0.056615405
-1.227879	ýmsum trjátegundum	-0.056615405
-3.134571	<s> lögun	-0.056615405
-1.227879	lögun ferilsins	-0.056615405
-1.227879	ferilsins útskýrist	-0.056615405
-1.5249581	meðal annars	-0.056615405
-2.3762085	af hlutfalli	-0.056615405
-1.227879	hlutfalli yfirborðs	-0.056615405
-2.7838645	og rúmmáls	-0.056615405
-1.227879	rúmmáls kjarnans	-0.056615405
-3.134571	<s> biskup	-0.056615405
-1.227879	biskup íslands	-0.056615405
-1.227879	íslands vígslubiskupar	-0.056615405
-1.227879	vígslubiskupar prófastar	-0.056615405
-2.7838645	og prestar	-0.056615405
-1.227879	prestar þjóðkirkjunnar	-0.056615405
-2.821267	<s> íslenska	-0.056615405
-2.2695918	um íslenska	-0.056615405
-2.289792	af íslenska	-0.056615405
-1.6971343	íslenska launamanninn	-0.056615405
-2.783237	í ritum	-0.056615405
-2.7838645	og náttúrufræðingnum	-0.056615405
-3.134571	<s> smellið	-0.056615405
-2.6987734	á myndina	-0.056615405
-2.7485497	að skoða	-0.056615405
-1.227879	skoða stærra	-0.056615405
-1.227879	stærra eintak	-0.056615405
-2.62551	á henni	-0.056615405
-2.339437	af henni	-0.056615405
-1.5249581	sjö prósent	-0.056615405
-2.3762085	af börnum	-0.056615405
-2.2935634	með heilalömun	-0.056615405
-1.2251605	meðfædda heilalömun	-0.056615405
-2.049794	hafa meðfædda	-0.056615405
-3.134571	<s> alaotran	-0.056615405
-1.227879	alaotran gentle	-0.056615405
-1.227879	gentle lemur	-0.056615405
-1.227879	lemur finnst	-0.056615405
-2.6987734	á madagaskar	-0.056615405
-3.134571	<s> orkuna	-0.056615405
-1.227879	orkuna fá	-0.056615405
-1.5249581	þær flestar	-0.056615405
-1.8181928	frá sólinni	-0.056615405
-1.9866261	þá kallast	-0.056615405
-1.5249581	þessi efnaframleiðsla	-0.056615405
-1.227879	efnaframleiðsla ljóstillífun	-0.056615405
-2.783237	í miðju	-0.056615405
-1.227879	miðju gígsins	-0.056615405
-2.7798643	er mikil	-0.056615405
-1.227879	mikil sigðarlaga	-0.056615405
-1.227879	sigðarlaga bunga	-0.056615405
-2.1514778	eða fjall	-0.056615405
-3.134571	<s> ólíkt	-0.056615405
-1.227879	ólíkt býflugum	-0.056615405
-1.6971343	sér stór	-0.056615405
-1.227879	stór bú	-0.056615405
-1.227879	bú ofanjarðar	-0.056615405
-3.134571	<s> fyrirtækið	-0.056615405
-2.7798643	er alfarið	-0.056615405
-1.5249581	eigu orkuveitu	-0.056615405
-1.227879	orkuveitu reykjavíkur	-0.056615405
-3.134571	<s> nóa	-0.056615405
-1.227879	nóa mun	-0.056615405
-1.227879	mun rigna	-0.056615405
-3.134571	<s> jón	-0.056615405
-1.227879	jón ólafur	-0.056615405
-1.5249581	verða úrkula	-0.056615405
-1.227879	úrkula vonar	-0.056615405
-2.049794	þegar herra	-0.056615405
-1.227879	herra toshizo	-0.056615405
-2.3259952	með hugmynd	-0.056615405
-3.134571	<s> maja	-0.056615405
-1.227879	maja spilaðu	-0.056615405
-2.9809566	<s> þannig	-0.056615405
-2.2681565	það þannig	-0.056615405
-2.670724	að uppruni	-0.056615405
-2.6966193	er uppruni	-0.056615405
-2.7798643	er umdeildur	-0.056615405
-2.049794	þegar heimildir	-0.056615405
-2.5100462	eru fáar	-0.056615405
-2.783237	í öll	-0.0052297306
-1.5249581	önnur skipti	-0.0052297306
-1.227879	skipti státaði	-0.0052297306
-1.227879	státaði sjálfstæðisflokkurinn	-0.0052297306
-1.6971343	fyrsta þingmanni	-0.0052297306
-1.227879	þingmanni vestfjarða	-0.0052297306
-3.134571	<s> færslan	-0.056615405
-2.7798643	er mismikil	-0.056615405
-2.049794	eftir fjarlægð	-0.056615405
-2.2654607	því bjagast	-0.056615405
-2.1514778	eða aflagast	-0.056615405
-1.227879	aflagast bergið	-0.056615405
-2.783237	í kring	-0.056615405
-3.134571	<s> sjöttu	-0.056615405
-1.227879	sjöttu röksemdina	-0.056615405
-1.8181928	nota gyðingar	-0.056615405
-1.227879	gyðingar sjálfir	-0.056615405
-1.9866261	má finna	-0.056615405
-1.227879	finna fjölda	-0.056615405
-1.5249581	tegunda áttfætlumaura	-0.056615405
-3.134571	<s> skólinn	-0.056615405
-1.2251605	skólinn fær	-0.056615405
-1.2251605	náttúrufræðistofnun fær	-0.056615405
-2.1943188	fyrir frammistöðu	-0.056615405
-1.2251605	frammistöðu sína	-0.056615405
-1.5195868	móður sína	-0.056615405
-3.134571	<s> kirkjur	-0.056615405
-2.783237	í hverfinu	-0.056615405
-2.5100462	eru laugarneskirkja	-0.056615405
-1.227879	laugarneskirkja áskirkja	-0.056615405
-2.7838645	og langholtskirkja	-0.056615405
-2.1943188	fyrir verkið	-0.056615405
-1.227879	verkið hlaut	-0.056615405
-1.227879	hlaut abel	-0.056615405
-1.227879	abel verðlaun	-0.056615405
-1.227879	verðlaun frönsku	-0.056615405
-1.227879	frönsku akademíunnar	-0.056615405
-2.2312934	en verðlaunaféð	-0.056615405
-1.227879	verðlaunaféð rann	-0.056615405
-2.38126	til móður	-0.056615405
-1.2251605	annast móður	-0.056615405
-1.6971343	öðrum orðum	-0.056615405
-1.227879	orðum nægilega	-0.056615405
-1.227879	nægilega lík	-0.056615405
-1.227879	lík vel	-0.056615405
-1.227879	vel þekktum	-0.056615405
-2.7838645	og þaulrannsökuðum	-0.056615405
-1.227879	þaulrannsökuðum tungumálum	-0.056615405
-2.7798643	er víst	-0.056615405
-2.7485497	að allir	-0.056615405
-1.8181928	séu sammála	-0.056615405
-1.5249581	teljast skuli	-0.056615405
-1.227879	skuli kristileg	-0.056615405
-1.227879	kristileg gildi	-0.056615405
-3.134571	<s> aðaleinkunn	-0.056615405
-1.227879	aðaleinkunn reiknast	-0.056615405
-1.6971343	tveimur aukastöfum	-0.056615405
-3.134571	<s> pyndingar	-0.056615405
-2.7838645	og nauðungarvinna	-0.056615405
-2.5100462	eru bannaðar	-0.056615405
-2.2935634	með öllu	-0.056615405
-1.2251605	endurkastar öllu	-0.056615405
-3.134571	<s> ein	-0.056615405
-2.1514778	eða fleiri	-0.056615405
-1.227879	fleiri sóknir	-0.056615405
-2.4593768	sem þjónað	-0.056615405
-1.9112569	sama sóknarpresti	-0.056615405
-1.227879	sóknarpresti mynda	-0.056615405
-1.227879	mynda saman	-0.056615405
-1.227879	saman prestakall	-0.056615405
-2.7485497	að fornu	-0.056615405
-1.8181928	nafnið eingöngu	-0.056615405
-1.227879	eingöngu notað	-0.056615405
-2.3516843	um innri	-0.056615405
-1.2251605	innri hluta	-0.056615405
-1.2251605	miklum hluta	-0.056615405
-1.5249581	hluta fjarðarins	-0.056615405
-3.134571	<s> sýking	-0.056615405
-2.3762085	af völdum	-0.056615405
-1.227879	völdum legíónella	-0.056615405
-1.227879	legíónella birtist	-0.056615405
-1.6971343	tveimur sjúkdómsmyndum	-0.056615405
-2.7798643	er líparít	-0.056615405
-1.5249581	sumir hallast	-0.056615405
-1.227879	hallast meira	-0.056615405
-2.7485497	að líkamlegum	-0.056615405
-1.227879	líkamlegum skýringarþáttum	-0.056615405
-2.3524196	var heiti	-0.056615405
-1.6979487	þess snarað	-0.056615405
-2.9809566	<s> yfir	-0.056615405
-1.2251605	snarað yfir	-0.056615405
-2.6987734	á dönsku	-0.056615405
-3.134571	<s> sauðárkrókur	-0.056615405
-2.7798643	er byggður	-0.056615405
-1.8181928	landi jarðarinnar	-0.056615405
-1.227879	jarðarinnar sauðár	-0.056615405
-3.134571	<s> athuganir	-0.056615405
-2.6987734	á litblindu	-0.056615405
-1.227879	litblindu fólki	-0.056615405
-1.227879	fólki styðja	-0.056615405
-1.6971343	þessa kenningu	-0.056615405
-1.5249581	henni flytur	-0.056615405
-1.227879	flytur ari	-0.056615405
-1.5249581	tvö lög	-0.056615405
-3.134571	<s> úlfarnir	-0.056615405
-1.227879	úlfarnir geri	-0.056615405
-2.7838645	og freki	-0.056615405
-1.227879	freki fylgja	-0.056615405
-1.227879	fylgja óðni	-0.056615405
-1.8181928	landi hrygnir	-0.056615405
-1.227879	hrygnir þorskurinn	-0.056615405
-2.6987734	á vorin	-0.056615405
-2.5100462	eru fílar	-0.056615405
-1.227879	fílar þungir	-0.056615405
-1.9866261	þeir fæðast	-0.056615405
-2.049794	þetta nýja	-0.056615405
-1.227879	nýja númer	-0.056615405
-1.227879	númer fékk	-0.056615405
-1.227879	fékk heitið	-0.056615405
-1.227879	heitið kennitala	-0.056615405
-2.7838645	og innihélt	-0.056615405
-1.8181928	hún tíu	-0.056615405
-1.227879	tíu tölustafi	-0.056615405
-3.134571	<s> lill	-0.056615405
-1.227879	lill opnaðu	-0.056615405
-1.227879	opnaðu dagatalið	-0.056615405
-1.227879	dagatalið mitt	-0.056615405
-3.134571	<s> áætlaðar	-0.056615405
-1.227879	áætlaðar eftirstöðvar	-0.056615405
-1.227879	eftirstöðvar höfuðstóls	-0.056615405
-1.227879	höfuðstóls áfallnir	-0.056615405
-1.227879	áfallnir vextir	-0.056615405
-2.7838645	og höfuðstólsgreiðslur	-0.056615405
-1.227879	höfuðstólsgreiðslur tryggingarsjóðs	-0.056615405
-1.227879	tryggingarsjóðs innstæðueigenda	-0.056615405
-2.7838645	og fjárfesta	-0.056615405
-1.8181928	vegna svavars	-0.056615405
-1.227879	svavars samninganna	-0.056615405
-3.134571	<s> láki	-0.056615405
-1.227879	láki kveiktu	-0.056615405
-2.6987734	á sjónvarpinu	-0.056615405
-1.8181928	nafnið undirstöðusetning	-0.056615405
-2.4124691	til kynna	-0.056615405
-2.7798643	er fullyrðingin	-0.056615405
-1.227879	fullyrðingin sönn	-0.056615405
-3.134571	<s> andþyngdin	-0.056615405
-1.227879	andþyngdin þyrfti	-0.056615405
-1.227879	þyrfti nefnilega	-0.056615405
-2.7485497	að verka	-0.056615405
-2.0320637	ekki alla	-0.056615405
-2.62551	á alla	-0.056615405
-1.5249581	alla massa	-0.056615405
-2.6987734	á tilteknum	-0.056615405
-1.6971343	mjög algengir	-0.056615405
-2.7838645	og útbreiddir	-0.056615405
-2.7838645	og komu	-0.056615405
-1.8181928	fram ýmis	-0.056615405
-1.6971343	mismunandi form	-0.056615405
-1.6971343	tíma bætist	-0.056615405
-1.8181928	svo almenn	-0.056615405
-1.227879	almenn töf	-0.056615405
-1.227879	töf bylgjunnar	-0.056615405
-2.9809566	<s> næsta	-0.056615405
-2.670724	að næsta	-0.0052297306
-1.5249581	næsta laugardag	-0.056615405
-1.227879	laugardag verður	-0.056615405
-1.227879	verður fullt	-0.056615405
-1.227879	fullt tungl	-0.056615405
-1.5249581	alla leið	-0.056615405
-2.049794	þegar ég	-0.056615405
-3.134571	<s> þrjár	-0.056615405
-1.227879	þrjár stórar	-0.056615405
-1.227879	stórar hrauntungur	-0.056615405
-2.049794	hafa runnið	-0.056615405
-1.8181928	frá búrfelli	-0.056615405
-2.7838645	og allar	-0.056615405
-2.4124691	til sjávar	-0.056615405
-1.5249581	samkvæmt jóhannesarguðspjalli	-0.056615405
-1.227879	jóhannesarguðspjalli fól	-0.056615405
-1.227879	fól jesús	-0.056615405
-2.6987734	á dauðastundinni	-0.056615405
-2.7485497	að annast	-0.056615405
-3.134571	<s> hússtyrjan	-0.056615405
-1.227879	hússtyrjan lifir	-0.056615405
-2.783237	í ám	-0.056615405
-2.783237	í austur	-0.056615405
-1.5249581	evrópu einkum	-0.056615405
-2.783237	í ríkjum	-0.056615405
-1.227879	ríkjum fyrrum	-0.056615405
-1.227879	fyrrum sovétríkjanna	-0.056615405
-3.134571	<s> yfirborð	-0.056615405
-1.227879	yfirborð dalsins	-0.056615405
-2.7485497	að miklum	-0.056615405
-1.5249581	hluta mótað	-0.056615405
-2.3762085	af vatni	-0.056615405
-2.3762085	af insúlínskorti	-0.056615405
-1.8181928	vegna fækkunar	-0.056615405
-1.227879	fækkunar beta	-0.056615405
-1.227879	beta frumna	-0.056615405
-3.134571	<s> yfirmenn	-0.056615405
-2.5100462	eru alveg	-0.056615405
-1.9974365	eins fúsir	-0.056615405
-2.7485497	að senda	-0.056615405
-2.783237	í dauðann	-0.056615405
-2.7838645	og hinir	-0.056615405
-2.7485497	að sjálfsögðu	-0.056615405
-1.227879	sjálfsögðu fer	-0.056615405
-2.049794	eftir staðháttum	-0.056615405
-2.708987	<s> baldvin	-0.0052297306
-1.227879	baldvin hversu	-0.0052297306
-1.227879	hversu marga	-0.0052297306
-1.5249581	næsta fríi	-0.0052297306
-2.3259952	með þátttökunni	-0.056615405
-1.8181928	fyrsti íslendingurinn	-0.056615405
-2.4593768	sem keppir	-0.056615405
-2.783237	í maraþonhlaupi	-0.056615405
-2.6987734	á ólympíuleikum	-0.056615405
-2.4593768	sem angraði	-0.056615405
-3.134571	<s> bæði	-0.056615405
-1.227879	bæði vegalengd	-0.056615405
-2.7838645	og massi	-0.056615405
-1.227879	massi spanna	-0.056615405
-1.227879	spanna vítt	-0.056615405
-1.227879	vítt svið	-0.056615405
-2.2654607	við tölum	-0.056615405
-2.7485497	að stjörnuþoka	-0.056615405
-2.783237	í ákveðnu	-0.056615405
-1.227879	ákveðnu merki	-0.056615405
-1.5249581	yfir nýárshátíð	-0.056615405
-1.5249581	japana sækja	-0.056615405
-1.5249581	nokkrar milljónir	-0.056615405
-1.227879	milljónir manns	-0.056615405
-1.227879	manns hofið	-0.056615405
-3.134571	<s> starf	-0.056615405
-1.227879	starf stuðningsfjölskyldunnar	-0.056615405
-1.227879	stuðningsfjölskyldunnar krefst	-0.056615405
-1.8181928	hún myndi	-0.056615405
-1.227879	myndi náin	-0.056615405
-1.227879	náin tengsl	-0.056615405
-2.2654607	við barnið	-0.056615405
-2.2654607	því leita	-0.056615405
-1.227879	leita börnin	-0.056615405
-2.4124691	til foreldranna	-0.056615405
-1.6971343	mismunandi aðstæður	-0.056615405
-2.5100462	eru vændiskonur	-0.056615405
-1.227879	vændiskonur hlutgerðar	-0.056615405
-1.8181928	jónsson íslenskaði	-0.056615405
-3.134571	<s> helstu	-0.056615405
-1.227879	helstu demantanámur	-0.056615405
-1.227879	demantanámur heims	-0.056615405
-1.227879	heims fyrr	-0.056615405
-2.7838645	og nú	-0.056615405
-2.7485497	að fleiru	-0.056615405
-2.7485497	að hyggja	-0.056615405
-2.7798643	er lokið	-0.056615405
-2.7798643	er lykillinn	-0.056615405
-1.227879	lykillinn tilbúinn	-0.056615405
-2.4124691	til notkunar	-0.056615405
-2.7798643	er andi	-0.056615405
-2.783237	í tölvunni	-0.056615405
-3.134571	<s> erling	-0.056615405
-1.227879	erling ólafsson	-0.056615405
-1.227879	ólafsson hjá	-0.056615405
-1.227879	hjá náttúrufræðistofnun	-0.056615405
-1.5249581	fær þakkir	-0.056615405
-2.1943188	fyrir aðstoð	-0.056615405
-2.2654607	við gerð	-0.056615405
-1.6971343	þessa svars	-0.056615405
-3.134571	<s> ekkert	-0.056615405
-1.5249581	efni endurkastar	-0.056615405
-1.5249581	öllu ljósi	-0.056615405
-2.2981272	það fellur	-0.056615405
-1.6971343	fyrsta lagi	-0.056615405
-1.9866261	má nefna	-0.056615405
-3.134571	<s> arftaki	-0.056615405
-2.3524196	var árni	-0.056615405
-1.8181928	jónsson skáld	-0.056615405
-3.134571	<s> slíkur	-0.056615405
-1.5249581	uppruni flestrar	-0.056615405
-1.227879	flestrar heimspekilegrar	-0.056615405
-1.227879	heimspekilegrar ráðvillu	-0.056615405
-3.134571	<s> philosophy	-0.056615405
-1.227879	philosophy pages	-0.056615405
-2.049794	eftir garth	-0.056615405
-1.227879	garth kemerling	-0.056615405
-3.134571	<s> magngeir	-0.056615405
-1.227879	magngeir hvenær	-0.056615405
-1.227879	hvenær kemur	-0.056615405
-1.227879	kemur ásinn	-0.056615405
-3.134571	<s> deildin	-0.056615405
-2.7798643	er rekin	-0.056615405
-1.6971343	íslenska knattspyrnusambandinu	-0.056615405
-3.134571	<s> starfið	-0.056615405
-2.7838645	og starfsheitið	-0.056615405
-2.049794	ekki lögverndað	-0.056615405
-3.134571	<s> fyrirtæki	-0.056615405
-1.227879	fyrirtæki sjá	-0.056615405
-1.227879	sjá verð	-0.056615405
-1.227879	verð afurða	-0.056615405
-1.227879	afurða sinna	-0.056615405
-1.2251605	sinna hækka	-0.056615405
-1.2251605	launin hækka	-0.056615405
-2.6987734	á atvinnumarkaði	-0.056615405
-1.6971343	sér launin	-0.056615405

\3-grams:
-0.66957355	á því </s>
-0.77369714	í millitíðinni </s>
-0.5830548	á heimsvísu </s>
-0.5830548	fyrir austan </s>
-0.6442178	menn mjög </s>
-0.5830548	á sjúkdómsferlinum </s>
-0.5830548	er klukkan </s>
-0.6525063	móður hans </s>
-0.5830548	áreiðanlega gleðiefni </s>
-0.6759931	kom það </s>
-0.5830548	ekki raunverulegt </s>
-0.6281007	til evrópu </s>
-0.6525063	komið fram </s>
-0.5830548	til forseta </s>
-0.5830548	eins mánaðar </s>
-0.77369714	og a </s>
-0.5830548	geysistórum nýlendum </s>
-0.6281007	því nafni </s>
-0.5830548	eftir skjaldvængjunum </s>
-0.5830548	tunglsins selena </s>
-0.5830548	land afgana </s>
-0.6442178	dönsku líka </s>
-0.5830548	norræna áhrifa </s>
-0.77369714	í garð </s>
-0.6281007	gamla daga </s>
-0.5830548	úr stórfirði </s>
-0.5830548	ýmsu tagi </s>
-0.5830548	hin hvíta </s>
-0.77369714	og viðlag </s>
-0.5830548	fimm mínútur </s>
-0.7586049	að baki </s>
-0.5830548	y litningnum </s>
-0.5830548	undir höfði </s>
-0.5830548	sigurðson dat </s>
-0.5830548	í burtu </s>
-0.5830548	af breinnisteinssamböndum </s>
-0.6525063	form þeirra </s>
-0.77369714	tegundir skordýraætna </s>
-0.5830548	á niðurteljaranum </s>
-0.5830548	emil doepler </s>
-0.5830548	sjálfs afstæðiskenningin </s>
-0.5830548	hroðalegan ósigur </s>
-0.5830548	á hjartslætti </s>
-0.5830548	herða vörturnar </s>
-0.5830548	til andaættarinnar </s>
-0.5830548	okkur lifandi </s>
-0.6442178	sama tíma </s>
-0.5830548	borgin mikið </s>
-0.5830548	suður ameríku </s>
-0.5830548	það skýrt </s>
-0.8556757	nrem svefn </s>
-0.5830548	samkvæmt stjórnarskránni </s>
-0.5830548	en kolvetni </s>
-0.88376033	sitt hvora </s>
-0.5830548	aðferðum vísindanna </s>
-0.5830548	íslenskri þýðingu </s>
-0.5830548	var pýþó </s>
-0.5830548	þeirra sönnuð </s>
-0.5830548	á jólin </s>
-0.5830548	tveimur bylgjulengdum </s>
-0.5830548	eru nátengd </s>
-0.5830548	eru höfuðverkur </s>
-0.47069404	þumalinn minni </s>
-0.5931343	doktorsritgerð minni </s>
-0.5830548	en rykmaurar </s>
-0.5830548	af mjölva </s>
-0.5830548	í alheiminum </s>
-0.6281007	nefna kjarnorkuver </s>
-0.5830548	vera örugg </s>
-0.5830548	eru sjávarhamrar </s>
-0.5830548	er brennt </s>
-0.5830548	guðshugmynd aristótelesar </s>
-0.5830548	framan hraunið </s>
-0.5830548	af bandaríkjunum </s>
-0.6525063	erla svo </s>
-0.77369714	nokkrar undirtegundir </s>
-0.5830548	brjóstkassans metið </s>
-0.5830548	aurora borealis </s>
-0.5830548	ekki landsframleiðslu </s>
-0.5830548	fjölmörg blóm </s>
-0.6281007	sautjánda nóvember </s>
-0.5830548	snorra sturlusyni </s>
-0.6281007	langlífi manna </s>
-0.47069404	og apa </s>
-0.47069404	þróun apa </s>
-0.6281007	tvö stig </s>
-0.5830548	á atómmassaeiningunni </s>
-0.5830548	í síðdegi </s>
-0.5830548	við vetrarkomu </s>
-0.5830548	svæðisbundnum áherslum </s>
-0.5830548	blár himinn </s>
-0.5830548	til skemmtunar </s>
-0.5830548	í knattspyrnu </s>
-0.6281007	er náð </s>
-0.5830548	oftast disklaga </s>
-0.5830548	golden ratio </s>
-0.5830548	dularfullum hætti </s>
-0.5830548	verða jólasveinn </s>
-0.5830548	úr berginu </s>
-0.5830548	kynhneigð sinni </s>
-0.5830548	á klukkutíma </s>
-0.5830548	einars sigfússonar </s>
-0.47069404	þetta lag </s>
-0.47069404	spilaðu lag </s>
-0.5830548	sem leikari </s>
-0.5830548	lífsferil sveppa </s>
-0.5830548	héruðin álava </s>
-0.5830548	sjónarmið kalvínista </s>
-0.8004916	í dag </s>
-0.6442178	þar upp </s>
-0.5830548	óhlöðnum nifteindum </s>
-0.5830548	þykja fallegir </s>
-0.5830548	að kveiknum </s>
-0.6281007	þessara tegunda </s>
-0.5830548	lútherska söfnuð </s>
-0.5830548	smá skömmtum </s>
-0.5830548	skyldastar risaeðlum </s>
-0.5830548	þessar rannsóknir </s>
-0.5830548	úr nútímamáli </s>
-0.5830548	á kröfugerð </s>
-0.5830548	önnur tungumál </s>
-0.5830548	jónsmessa dregið </s>
-0.47069404	sama stað </s>
